{"learner":{"attributes":{"scikit_learn":"{\"_estimator_type\": \"classifier\"}"},"feature_names":[],"feature_types":[],"gradient_booster":{"model":{"gbtree_model_param":{"num_parallel_tree":"1","num_trees":"200"},"iteration_indptr":[0,1,2,3,4,5,6,7,8,9,10,11,12,13,14,15,16,17,18,19,20,21,22,23,24,25,26,27,28,29,30,31,32,33,34,35,36,37,38,39,40,41,42,43,44,45,46,47,48,49,50,51,52,53,54,55,56,57,58,59,60,61,62,63,64,65,66,67,68,69,70,71,72,73,74,75,76,77,78,79,80,81,82,83,84,85,86,87,88,89,90,91,92,93,94,95,96,97,98,99,100,101,102,103,104,105,106,107,108,109,110,111,112,113,114,115,116,117,118,119,120,121,122,123,124,125,126,127,128,129,130,131,132,133,134,135,136,137,138,139,140,141,142,143,144,145,146,147,148,149,150,151,152,153,154,155,156,157,158,159,160,161,162,163,164,165,166,167,168,169,170,171,172,173,174,175,176,177,178,179,180,181,182,183,184,185,186,187,188,189,190,191,192,193,194,195,196,197,198,199,200],"tree_info":[0,0,0,0,0,0,0,0,0,0,0,0,0,0,0,0,0,0,0,0,0,0,0,0,0,0,0,0,0,0,0,0,0,0,0,0,0,0,0,0,0,0,0,0,0,0,0,0,0,0,0,0,0,0,0,0,0,0,0,0,0,0,0,0,0,0,0,0,0,0,0,0,0,0,0,0,0,0,0,0,0,0,0,0,0,0,0,0,0,0,0,0,0,0,0,0,0,0,0,0,0,0,0,0,0,0,0,0,0,0,0,0,0,0,0,0,0,0,0,0,0,0,0,0,0,0,0,0,0,0,0,0,0,0,0,0,0,0,0,0,0,0,0,0,0,0,0,0,0,0,0,0,0,0,0,0,0,0,0,0,0,0,0,0,0,0,0,0,0,0,0,0,0,0,0,0,0,0,0,0,0,0,0,0,0,0,0,0,0,0,0,0,0,0,0,0,0,0,0,0],"trees":[{"base_weights":[-5.434245E-2,-7.171525E-1,1.234191E0,-9.4261724E-1,2.608185E-1,4.4518134E-1,1.3551973E0,-1.13603E0,-3.4716204E-1,-3.0791873E-1,5.9995764E-1,8.6790934E-2,6.1805803E-2,2.4038376E-1,1.4097196E0,-1.252366E0,-6.681521E-1,-1.273968E0,-1.37252E-3,-6.940154E-1,4.5082444E-1,1.937113E-1,1.1703473E0,2.4568379E-2,-1.6843617E-1,3.9475985E-2,-1.6976982E-2,1.1694425E0,7.782711E-2,-6.8393044E-2,-5.2307695E-2,4.085578E-3,-4.0361006E-2,-3.0706495E-2,-7.85075E-2,-2.2637336E-2,2.6587982E-2,-5.5226713E-2,1.272161E-2,6.8409257E-3,3.1663433E-2,-5.9662587E-3,4.0727478E-2,2.4568379E-2,7.6939374E-2,-2.9476428E-2,8.040796E-3,4.765062E-2,8.038285E-2],"categories":[],"categories_nodes":[],"categories_segments":[],"categories_sizes":[],"default_left":[0,0,0,0,0,0,0,0,0,0,0,0,0,0,0,0,0,0,0,0,0,0,0,0,0,0,0,0,0,0,0,0,0,0,0,0,0,0,0,0,0,0,0,0,0,0,0,0,0],"id":0,"left_children":[1,3,5,7,9,11,13,15,17,19,21,23,-1,25,27,29,31,33,35,37,39,41,43,-1,45,-1,-1,47,-1,-1,-1,-1,-1,-1,-1,-1,-1,-1,-1,-1,-1,-1,-1,-1,-1,-1,-1,-1,-1],"loss_changes":[3.8451108E2,6.587544E1,1.3815781E1,2.7319733E1,1.1093562E1,5.9772935E0,7.518051E0,8.880112E0,1.9382177E1,6.671092E0,7.928854E0,1.7935736E0,0E0,2.68392E0,2.335678E0,1.7685852E0,4.1602497E0,2.0347366E0,1.1162533E1,6.132633E0,2.838068E-1,4.4812193E0,2.6893597E0,0E0,1.6018579E0,0E0,0E0,3.1334763E0,0E0,0E0,0E0,0E0,0E0,0E0,0E0,0E0,0E0,0E0,0E0,0E0,0E0,0E0,0E0,0E0,0E0,0E0,0E0,0E0,0E0],"parents":[2147483647,0,0,1,1,2,2,3,3,4,4,5,5,6,6,7,7,8,8,9,9,10,10,11,11,13,13,14,14,15,15,16,16,17,17,18,18,19,19,20,20,21,21,22,22,24,24,27,27],"right_children":[2,4,6,8,10,12,14,16,18,20,22,24,-1,26,28,30,32,34,36,38,40,42,44,-1,46,-1,-1,48,-1,-1,-1,-1,-1,-1,-1,-1,-1,-1,-1,-1,-1,-1,-1,-1,-1,-1,-1,-1,-1],"split_conditions":[3E0,4E0,1E0,1E0,2E0,2E0,1E0,2E0,2E0,1E0,1E0,5.9E1,6.1805803E-2,1E0,3E0,6.7E1,5.4E1,5.7E1,1E0,1E0,6.6E1,2E0,6.8E1,2.4568379E-2,1E0,3.9475985E-2,-1.6976982E-2,2E0,7.782711E-2,-6.8393044E-2,-5.2307695E-2,4.085578E-3,-4.0361006E-2,-3.0706495E-2,-7.85075E-2,-2.2637336E-2,2.6587982E-2,-5.5226713E-2,1.272161E-2,6.8409257E-3,3.1663433E-2,-5.9662587E-3,4.0727478E-2,2.4568379E-2,7.6939374E-2,-2.9476428E-2,8.040796E-3,4.765062E-2,8.038285E-2],"split_indices":[0,7,7,4,0,3,6,3,0,10,4,8,0,14,7,8,8,8,7,15,8,3,8,0,4,0,0,3,0,0,0,0,0,0,0,0,0,0,0,0,0,0,0,0,0,0,0,0,0],"split_type":[0,0,0,0,0,0,0,0,0,0,0,0,0,0,0,0,0,0,0,0,0,0,0,0,0,0,0,0,0,0,0,0,0,0,0,0,0,0,0,0,0,0,0,0,0,0,0,0,0],"sum_hessian":[4.482435E2,2.9633334E2,1.5191017E2,2.4092749E2,5.5405846E1,2.0931818E1,1.3097835E2,1.8104546E2,5.9882034E1,2.0621212E1,3.478463E1,1.5255411E1,5.676407E0,6.444805E0,1.2453355E2,1.4347943E2,3.7566017E1,1.5463203E1,4.441883E1,1.3810606E1,6.810606E0,2.1200216E1,1.3584415E1,5.694805E0,9.560606E0,3.2132034E0,3.2316017E0,5.0892857E1,7.364069E1,8.804762E1,5.5431816E1,5.8290043E0,3.1737013E1,5.8474026E0,9.615801E0,2.4237013E1,2.0181818E1,9.597403E0,4.2132034E0,3.3474026E0,3.4632034E0,1.4523809E1,6.676407E0,5.694805E0,7.8896103E0,3.9816017E0,5.5790043E0,3.6345238E1,1.4547619E1],"tree_param":{"num_deleted":"0","num_feature":"16","num_nodes":"49","size_leaf_vector":"1"}},{"base_weights":[2.2078814E-2,-6.6247505E-1,1.2173575E0,-9.120408E-1,-5.6620236E-2,3.9159212E-1,1.3434992E0,-1.0456305E0,-0E0,3.127733E-1,-1.0960742E0,-2.6090136E-2,7.111187E-1,1.1124736E0,1.4880217E0,-1.1849687E0,-8.0501455E-1,-3.2258746E-1,5.433129E-1,-2.3144364E-1,6.905225E-1,-1.367926E0,-3.142311E-1,2.311874E-2,-3.325857E-2,4.836683E-2,7.2427886E-3,8.473659E-1,8.052681E-2,1.2713125E0,8.148991E-2,-4.2683747E-2,-6.947453E-2,-5.6508075E-2,-1.438264E-2,-3.7730034E-2,2.369803E-2,-1.6887603E-2,5.005477E-2,-2.404523E-2,3.0359982E-2,-5.4146856E-2,4.6392728E-2,-1.5807422E-2,-7.977634E-2,-4.3580912E-2,1.4913708E-2,5.3796202E-2,2.2244332E-2,7.171016E-2,4.5380015E-2],"categories":[],"categories_nodes":[],"categories_segments":[],"categories_sizes":[],"default_left":[0,0,0,0,0,0,0,0,0,0,0,0,0,0,0,0,0,0,0,0,0,0,0,0,0,0,0,0,0,0,0,0,0,0,0,0,0,0,0,0,0,0,0,0,0,0,0,0,0,0,0],"id":1,"left_children":[1,3,5,7,9,11,13,15,17,19,21,23,25,27,29,31,33,35,37,39,41,43,45,-1,-1,-1,-1,47,-1,49,-1,-1,-1,-1,-1,-1,-1,-1,-1,-1,-1,-1,-1,-1,-1,-1,-1,-1,-1,-1,-1],"loss_changes":[3.6915738E2,4.321499E1,1.6416138E1,2.4729752E1,3.3002438E1,3.1954603E0,2.8265991E0,4.781891E0,4.894945E0,1.3221428E1,4.193012E0,3.7379184E0,1.6880245E0,6.164612E0,2.2309875E-1,6.0236664E0,1.1022083E1,6.4136877E0,4.6020255E0,5.8403826E0,1.687054E1,3.214201E0,2.778408E0,0E0,0E0,0E0,0E0,3.1105537E0,0E0,7.215042E-1,0E0,0E0,0E0,0E0,0E0,0E0,0E0,0E0,0E0,0E0,0E0,0E0,0E0,0E0,0E0,0E0,0E0,0E0,0E0,0E0,0E0],"parents":[2147483647,0,0,1,1,2,2,3,3,4,4,5,5,6,6,7,7,8,8,9,9,10,10,11,11,12,12,13,13,14,14,15,15,16,16,17,17,18,18,19,19,20,20,21,21,22,22,27,27,29,29],"right_children":[2,4,6,8,10,12,14,16,18,20,22,24,26,28,30,32,34,36,38,40,42,44,46,-1,-1,-1,-1,48,-1,50,-1,-1,-1,-1,-1,-1,-1,-1,-1,-1,-1,-1,-1,-1,-1,-1,-1,-1,-1,-1,-1],"split_conditions":[1E0,1E0,1E0,5E0,1E0,6.5E1,3E0,6.7E1,1E0,1E0,1E0,5.7E1,1E0,2E0,1E0,5.7E1,1E0,2E0,6.3E1,2E0,5.3E1,5.4E1,6.2E1,2.311874E-2,-3.325857E-2,4.836683E-2,7.2427886E-3,2E0,8.052681E-2,6.6E1,8.148991E-2,-4.2683747E-2,-6.947453E-2,-5.6508075E-2,-1.438264E-2,-3.7730034E-2,2.369803E-2,-1.6887603E-2,5.005477E-2,-2.404523E-2,3.0359982E-2,-5.4146856E-2,4.6392728E-2,-1.5807422E-2,-7.977634E-2,-4.3580912E-2,1.4913708E-2,5.3796202E-2,2.2244332E-2,7.171016E-2,4.5380015E-2],"split_indices":[1,4,7,7,9,8,7,8,10,7,10,8,14,3,5,8,10,3,8,3,8,8,8,0,0,0,0,7,0,8,0,0,0,0,0,0,0,0,0,0,0,0,0,0,0,0,0,0,0,0,0],"split_type":[0,0,0,0,0,0,0,0,0,0,0,0,0,0,0,0,0,0,0,0,0,0,0,0,0,0,0,0,0,0,0,0,0,0,0,0,0,0,0,0,0,0,0,0,0,0,0,0,0,0,0],"sum_hessian":[4.491109E2,2.8579434E2,1.6331657E2,2.0194006E2,8.385427E1,2.2290804E1,1.4102577E2,1.7601582E2,2.592423E1,6.231287E1,2.1541397E1,9.923838E0,1.2366966E1,5.7884445E1,8.314133E1,1.0871803E2,6.72978E1,1.6517105E1,9.407125E0,2.5581139E1,3.673173E1,1.5332625E1,6.208771E0,5.692755E0,4.231082E0,7.9052067E0,4.4617596E0,3.9670704E1,1.8213741E1,3.71021E1,4.6039223E1,4.365945E1,6.505858E1,4.0479706E1,2.681809E1,1.0824545E1,5.6925607E0,3.2314715E0,6.175654E0,2.0137032E1,5.444108E0,3.86515E0,3.286658E1,3.2308402E0,1.2101786E1,3.1146388E0,3.0941327E0,2.4076529E1,1.5594173E1,2.3402826E1,1.3699274E1],"tree_param":{"num_deleted":"0","num_feature":"16","num_nodes":"51","size_leaf_vector":"1"}},{"base_weights":[6.368316E-3,-6.5426177E-1,1.1717914E0,-1.1223724E0,-3.128045E-1,3.9056194E-1,1.299167E0,-1.2066514E0,-3.8885498E-1,-6.6780555E-1,2.7762613E-1,4.9226336E-2,5.6194074E-2,1.11043E0,7.407003E-2,-7.199679E-1,-1.3829077E0,-7.589711E-1,2.3674576E-2,-9.6437E-1,-1.601147E-1,-1.388887E-1,6.2785697E-1,-3.9608136E-2,4.272899E-1,9.783914E-3,1.1627376E0,-1.9136397E-2,-7.1678706E-2,-7.607564E-2,-4.1968014E-2,-5.9147824E-2,-4.0914975E-3,-6.0991075E-2,-2.2578169E-2,-2.3107177E-2,1.9513195E-2,-2.1973774E-2,3.5951965E-2,-2.5139282E-2,4.279782E-2,3.6828663E-2,-1.779515E-2,4.0738907E-2,6.1773915E-2],"categories":[],"categories_nodes":[],"categories_segments":[],"categories_sizes":[],"default_left":[0,0,0,0,0,0,0,0,0,0,0,0,0,0,0,0,0,0,0,0,0,0,0,0,0,0,0,0,0,0,0,0,0,0,0,0,0,0,0,0,0,0,0,0,0],"id":2,"left_children":[1,3,5,7,9,11,13,15,17,19,21,23,-1,25,-1,27,29,31,-1,33,35,37,39,-1,41,-1,43,-1,-1,-1,-1,-1,-1,-1,-1,-1,-1,-1,-1,-1,-1,-1,-1,-1,-1],"loss_changes":[3.4311215E2,4.4952866E1,1.5370163E1,6.7534485E0,3.5001144E1,5.8713217E0,2.8460083E0,7.930649E0,4.825689E0,1.53941E1,9.311839E0,5.905485E0,0E0,3.0868683E0,0E0,6.622925E0,4.2845154E0,2.7033944E0,0E0,7.84103E0,6.783342E0,7.874928E0,9.358242E0,0E0,3.4215424E0,0E0,5.0696564E-1,0E0,0E0,0E0,0E0,0E0,0E0,0E0,0E0,0E0,0E0,0E0,0E0,0E0,0E0,0E0,0E0,0E0,0E0],"parents":[2147483647,0,0,1,1,2,2,3,3,4,4,5,5,6,6,7,7,8,8,9,9,10,10,11,11,13,13,15,15,16,16,17,17,19,19,20,20,21,21,22,22,24,24,26,26],"right_children":[2,4,6,8,10,12,14,16,18,20,22,24,-1,26,-1,28,30,32,-1,34,36,38,40,-1,42,-1,44,-1,-1,-1,-1,-1,-1,-1,-1,-1,-1,-1,-1,-1,-1,-1,-1,-1,-1],"split_conditions":[3E0,2E0,1E0,5E0,1E0,2E0,1E0,5.7E1,1E0,2E0,1E0,2.8557526E1,5.6194074E-2,1E0,7.407003E-2,1E0,1E0,2E0,2.3674576E-2,3.5457733E1,2E0,2E0,5.5E1,-3.9608136E-2,6.8E1,9.783914E-3,2E0,-1.9136397E-2,-7.1678706E-2,-7.607564E-2,-4.1968014E-2,-5.9147824E-2,-4.0914975E-3,-6.0991075E-2,-2.2578169E-2,-2.3107177E-2,1.9513195E-2,-2.1973774E-2,3.5951965E-2,-2.5139282E-2,4.279782E-2,3.6828663E-2,-1.779515E-2,4.0738907E-2,6.1773915E-2],"split_indices":[0,0,7,7,4,3,5,8,10,7,7,13,0,6,0,15,10,6,0,13,6,3,8,0,8,0,6,0,0,0,0,0,0,0,0,0,0,0,0,0,0,0,0,0,0],"split_type":[0,0,0,0,0,0,0,0,0,0,0,0,0,0,0,0,0,0,0,0,0,0,0,0,0,0,0,0,0,0,0,0,0,0,0,0,0,0,0,0,0,0,0,0,0],"sum_hessian":[4.4358722E2,2.8333127E2,1.6025597E2,1.18414536E2,1.6491673E2,2.3146076E1,1.3710988E2,1.0551035E2,1.29041815E1,1.0301592E2,6.1900814E1,1.6615578E1,6.530499E0,7.110719E1,6.600269E1,2.9554848E1,7.5955505E1,9.193992E0,3.7101898E0,6.4337234E1,3.8678688E1,2.8420004E1,3.3480812E1,4.7297E0,1.1885877E1,4.205986E0,6.690121E1,2.1208487E1,8.346362E0,5.8942028E1,1.7013475E1,5.103696E0,4.0902953E0,4.1894188E1,2.2443048E1,2.5194712E1,1.3483979E1,2.14937E1,6.926304E0,5.344846E0,2.8135965E1,8.655157E0,3.2307196E0,1.3914791E1,5.2986412E1],"tree_param":{"num_deleted":"0","num_feature":"16","num_nodes":"45","size_leaf_vector":"1"}},{"base_weights":[6.52481E-4,-3.550279E-1,7.1036905E-1,-6.559556E-1,3.149121E-1,9.532861E-1,-5.5772495E-1,-8.059097E-1,-1.4966059E-1,-3.462866E-1,7.5336516E-1,5.7110184E-1,1.3403528E0,-7.236777E-2,-3.153051E-1,-9.6427786E-1,-3.9350644E-1,8.33213E-2,-6.5497786E-1,-7.983047E-1,2.5919238E-1,9.128713E-2,1.1119547E0,-4.87232E-3,9.709281E-1,1.0176519E0,7.8074746E-2,5.373298E-2,-1.0030061E0,-5.4163337E-2,-1.20578045E-2,-5.4030564E-2,-8.556283E-3,-3.3817437E-2,1.4133788E-2,-5.2929964E-2,1.738759E-2,-6.0148217E-2,2.6711075E-2,3.0462468E-2,-3.1207306E-2,-1.998547E-2,4.0003132E-2,5.94878E-2,8.571004E-3,-2.4633909E-2,3.8502544E-2,6.2800184E-2,2.5127683E-2,2.9957814E-2,6.6559486E-2,-1.4445138E-2,3.8319226E-2,-6.958636E-2,-1.7682087E-2],"categories":[],"categories_nodes":[],"categories_segments":[],"categories_sizes":[],"default_left":[0,0,0,0,0,0,0,0,0,0,0,0,0,0,0,0,0,0,0,0,0,0,0,0,0,0,0,0,0,0,0,0,0,0,0,0,0,0,0,0,0,0,0,0,0,0,0,0,0,0,0,0,0,0,0],"id":3,"left_children":[1,3,5,7,9,11,13,15,17,19,21,23,25,-1,27,29,31,33,35,37,39,41,43,45,47,49,-1,51,53,-1,-1,-1,-1,-1,-1,-1,-1,-1,-1,-1,-1,-1,-1,-1,-1,-1,-1,-1,-1,-1,-1,-1,-1,-1,-1],"loss_changes":[1.1445542E2,6.109549E1,4.7213852E1,1.563002E1,2.7591621E1,1.7905952E1,4.738951E0,9.97683E0,5.889114E0,1.0695834E1,1.3312454E1,1.5307768E1,2.6116104E0,0E0,5.4632225E0,9.519226E0,6.7855945E0,5.3522515E0,6.8071756E0,1.266395E1,5.6223783E0,7.7429953E0,2.3521423E0,1.0916525E1,4.411419E0,2.7437725E0,0E0,3.8053703E0,1.2159348E0,0E0,0E0,0E0,0E0,0E0,0E0,0E0,0E0,0E0,0E0,0E0,0E0,0E0,0E0,0E0,0E0,0E0,0E0,0E0,0E0,0E0,0E0,0E0,0E0,0E0,0E0],"parents":[2147483647,0,0,1,1,2,2,3,3,4,4,5,5,6,6,7,7,8,8,9,9,10,10,11,11,12,12,14,14,15,15,16,16,17,17,18,18,19,19,20,20,21,21,22,22,23,23,24,24,25,25,27,27,28,28],"right_children":[2,4,6,8,10,12,14,16,18,20,22,24,26,-1,28,30,32,34,36,38,40,42,44,46,48,50,-1,52,54,-1,-1,-1,-1,-1,-1,-1,-1,-1,-1,-1,-1,-1,-1,-1,-1,-1,-1,-1,-1,-1,-1,-1,-1,-1,-1],"split_conditions":[3E0,1E0,1E0,2E0,1E0,1E0,4E0,1E0,1E0,1E0,2E0,2E0,1E0,-7.236777E-2,1E0,2E0,1E0,5.7E1,3.615097E1,1E0,2E0,1E0,4E0,2E0,3.3540775E1,5E0,7.8074746E-2,1E0,1E0,-5.4163337E-2,-1.20578045E-2,-5.4030564E-2,-8.556283E-3,-3.3817437E-2,1.4133788E-2,-5.2929964E-2,1.738759E-2,-6.0148217E-2,2.6711075E-2,3.0462468E-2,-3.1207306E-2,-1.998547E-2,4.0003132E-2,5.94878E-2,8.571004E-3,-2.4633909E-2,3.8502544E-2,6.2800184E-2,2.5127683E-2,2.9957814E-2,6.6559486E-2,-1.4445138E-2,3.8319226E-2,-6.958636E-2,-1.7682087E-2],"split_indices":[7,11,9,3,7,4,7,4,9,4,6,6,11,0,4,7,6,8,13,15,11,15,11,3,13,7,0,10,10,0,0,0,0,0,0,0,0,0,0,0,0,0,0,0,0,0,0,0,0,0,0,0,0,0,0],"split_type":[0,0,0,0,0,0,0,0,0,0,0,0,0,0,0,0,0,0,0,0,0,0,0,0,0,0,0,0,0,0,0,0,0,0,0,0,0,0,0,0,0,0,0,0,0,0,0,0,0,0,0,0,0,0,0],"sum_hessian":[4.5127054E2,3.0085394E2,1.5041661E2,2.0771942E2,9.313452E1,1.2650947E2,2.3907137E1,1.5964624E2,4.807318E1,3.7127464E1,5.6007057E1,6.503179E1,6.147768E1,3.966811E0,1.9940327E1,1.1420815E2,4.543808E1,3.3339066E1,1.4734116E1,2.1169868E1,1.5957596E1,2.0215614E1,3.5791443E1,2.6948513E1,3.808328E1,2.746032E1,3.401736E1,1.3481995E1,6.458332E0,9.752431E1,1.6683842E1,1.0056591E1,3.538149E1,6.3286147E0,2.7010452E1,1.0536818E1,4.1972976E0,1.637071E1,4.7991586E0,1.173188E1,4.2257156E0,1.21168E1,8.098813E0,3.2714027E1,3.0774148E0,1.6840725E1,1.0107788E1,2.249599E1,1.5587286E1,1.314495E1,1.4315371E1,9.411383E0,4.0706115E0,3.2284894E0,3.2298427E0],"tree_param":{"num_deleted":"0","num_feature":"16","num_nodes":"55","size_leaf_vector":"1"}},{"base_weights":[3.4660585E-2,-5.4647785E-1,1.096099E0,-7.504529E-1,-4.575E-3,5.161571E-1,1.1930575E0,-8.708493E-1,4.173314E-2,3.985906E-1,-1.0939633E0,1.6729988E-1,8.983342E-1,2.3662558E-2,1.211935E0,-9.902507E-1,-3.7151155E-1,-2.6427796E-1,4.230505E-2,6.132884E-1,-2.7096832E-1,-7.610275E-2,-9.554977E-2,-9.5115215E-2,3.4414466E-2,1.1021372E0,1.1812418E-2,1.1024263E0,1.3842521E0,-5.4620963E-2,-2.9433552E-2,-4.0291935E-2,-8.804568E-3,-3.6561783E-2,1.5498732E-2,-3.3243492E-2,3.8522363E-2,-3.930945E-2,1.18602915E-2,-2.2526478E-2,1.5667437E-2,-2.7607014E-2,2.7178625E-2,7.115599E-2,3.1540632E-2,6.262545E-2,4.4938967E-2,4.5727737E-2,7.3451824E-2],"categories":[],"categories_nodes":[],"categories_segments":[],"categories_sizes":[],"default_left":[0,0,0,0,0,0,0,0,0,0,0,0,0,0,0,0,0,0,0,0,0,0,0,0,0,0,0,0,0,0,0,0,0,0,0,0,0,0,0,0,0,0,0,0,0,0,0,0,0],"id":4,"left_children":[1,3,5,7,9,11,13,15,17,19,21,23,25,-1,27,29,31,33,-1,35,37,-1,39,41,-1,43,-1,45,47,-1,-1,-1,-1,-1,-1,-1,-1,-1,-1,-1,-1,-1,-1,-1,-1,-1,-1,-1,-1],"loss_changes":[2.790967E2,3.2230614E1,8.215622E0,2.0360634E1,3.6114513E1,3.0552716E0,1.1093903E0,1.0489151E1,7.381505E0,8.80286E0,9.195969E0,2.087065E0,1.1561117E0,0E0,7.161102E-1,5.2626953E0,2.9294748E0,6.051875E0,0E0,9.709133E0,4.1975446E0,0E0,1.2884475E0,3.3063974E0,0E0,1.6721821E-1,0E0,1.2868347E0,2.907257E-1,0E0,0E0,0E0,0E0,0E0,0E0,0E0,0E0,0E0,0E0,0E0,0E0,0E0,0E0,0E0,0E0,0E0,0E0,0E0,0E0],"parents":[2147483647,0,0,1,1,2,2,3,3,4,4,5,5,6,6,7,7,8,8,9,9,10,10,11,11,12,12,14,14,15,15,16,16,17,17,19,19,20,20,22,22,23,23,25,25,27,27,28,28],"right_children":[2,4,6,8,10,12,14,16,18,20,22,24,26,-1,28,30,32,34,-1,36,38,-1,40,42,-1,44,-1,46,48,-1,-1,-1,-1,-1,-1,-1,-1,-1,-1,-1,-1,-1,-1,-1,-1,-1,-1,-1,-1],"split_conditions":[1E0,1E0,1E0,5E0,1E0,3.285646E1,4.5E1,2E0,2E0,3.5957645E1,1E0,2E0,6.6E1,2.3662558E-2,1E0,2E0,2.7228708E1,1E0,4.230505E-2,5.3E1,6.4E1,-7.610275E-2,6.6E1,6.8E1,3.4414466E-2,3.826104E1,1.1812418E-2,3.1094976E1,1E0,-5.4620963E-2,-2.9433552E-2,-4.0291935E-2,-8.804568E-3,-3.6561783E-2,1.5498732E-2,-3.3243492E-2,3.8522363E-2,-3.930945E-2,1.18602915E-2,-2.2526478E-2,1.5667437E-2,-2.7607014E-2,2.7178625E-2,7.115599E-2,3.1540632E-2,6.262545E-2,4.4938967E-2,4.5727737E-2,7.3451824E-2],"split_indices":[1,4,7,7,9,13,8,3,3,13,10,3,8,0,15,7,13,10,0,8,8,0,8,8,0,13,0,13,11,0,0,0,0,0,0,0,0,0,0,0,0,0,0,0,0,0,0,0,0],"split_type":[0,0,0,0,0,0,0,0,0,0,0,0,0,0,0,0,0,0,0,0,0,0,0,0,0,0,0,0,0,0,0,0,0,0,0,0,0,0,0,0,0,0,0,0,0,0,0,0,0],"sum_hessian":[4.5039996E2,2.9130252E2,1.5909746E2,2.1122643E2,8.0076096E1,2.3842457E1,1.3525499E2,1.8338284E2,2.7843582E1,5.8841934E1,2.123416E1,1.3353024E1,1.0489433E1,4.2581325E0,1.3099686E2,1.4703944E2,3.6343403E1,2.0566467E1,7.277116E0,4.473182E1,1.4110115E1,1.4424645E1,6.809514E0,9.296166E0,4.0568576E0,7.3968544E0,3.0925786E0,8.4973526E1,4.6023335E1,1.1564747E2,3.1391973E1,1.014981E1,2.6193592E1,1.1288175E1,9.278293E0,4.4744754E0,4.0257343E1,6.8325353E0,7.27758E0,3.7214947E0,3.0880191E0,5.5889597E0,3.7072067E0,3.072703E0,4.3241515E0,4.5672554E1,3.9300972E1,9.019953E0,3.7003384E1],"tree_param":{"num_deleted":"0","num_feature":"16","num_nodes":"49","size_leaf_vector":"1"}},{"base_weights":[-0E0,-5.6030214E-1,1.0466001E0,-7.114797E-1,1.4617097E-1,8.062331E-1,1.2802474E0,-8.4798145E-1,-3.0706793E-1,-6.9789276E-2,1.1468133E0,6.2480766E-1,6.318814E-2,1.3139427E0,1.9200651E-2,-1.0181556E0,-4.3751907E-1,-4.4384563E-1,1.8670945E-1,-6.4797556E-1,1.5767652E-1,2.0814544E-2,7.585513E-2,1.4883317E-1,7.7752405E-1,7.173742E-2,9.9461067E-1,-5.990044E-2,-3.8564563E-2,1.737717E-3,-3.99621E-2,-4.1142777E-2,-1.3337824E-2,-4.4134267E-2,4.7606375E-2,-5.7667818E-2,-9.351991E-3,-5.2184886E-3,3.644916E-2,4.471902E-2,-1.1425585E-2,-1.3725174E-2,4.4507995E-2,-8.906759E-3,6.0393523E-2],"categories":[],"categories_nodes":[],"categories_segments":[],"categories_sizes":[],"default_left":[0,0,0,0,0,0,0,0,0,0,0,0,0,0,0,0,0,0,0,0,0,0,0,0,0,0,0,0,0,0,0,0,0,0,0,0,0,0,0,0,0,0,0,0,0],"id":5,"left_children":[1,3,5,7,9,11,13,15,17,19,21,23,-1,25,-1,27,29,31,33,35,37,-1,-1,39,41,-1,43,-1,-1,-1,-1,-1,-1,-1,-1,-1,-1,-1,-1,-1,-1,-1,-1,-1,-1],"loss_changes":[2.6690436E2,3.1812973E1,7.6734314E0,1.3116287E1,1.163077E1,5.7576027E0,1.6985474E0,1.212027E1,4.392539E0,5.992356E0,1.755517E0,4.170622E0,0E0,1.2313995E0,0E0,4.549698E0,9.544539E0,3.0359287E0,1.2556033E1,2.6458163E0,5.0121737E0,0E0,0E0,4.780497E0,5.663496E0,0E0,6.352974E0,0E0,0E0,0E0,0E0,0E0,0E0,0E0,0E0,0E0,0E0,0E0,0E0,0E0,0E0,0E0,0E0,0E0,0E0],"parents":[2147483647,0,0,1,1,2,2,3,3,4,4,5,5,6,6,7,7,8,8,9,9,10,10,11,11,13,13,15,15,16,16,17,17,18,18,19,19,20,20,23,23,24,24,26,26],"right_children":[2,4,6,8,10,12,14,16,18,20,22,24,-1,26,-1,28,30,32,34,36,38,-1,-1,40,42,-1,44,-1,-1,-1,-1,-1,-1,-1,-1,-1,-1,-1,-1,-1,-1,-1,-1,-1,-1],"split_conditions":[1E0,4E0,3E0,1E0,7.7E1,2E0,8E0,3.630748E1,1E0,1E0,1E0,2E0,6.318814E-2,3.4096535E1,1.9200651E-2,6.5E1,3.954231E1,1E0,3.2144135E1,6.3E1,6E0,2.0814544E-2,7.585513E-2,1E0,2.331099E1,7.173742E-2,3.5457733E1,-5.990044E-2,-3.8564563E-2,1.737717E-3,-3.99621E-2,-4.1142777E-2,-1.3337824E-2,-4.4134267E-2,4.7606375E-2,-5.7667818E-2,-9.351991E-3,-5.2184886E-3,3.644916E-2,4.471902E-2,-1.1425585E-2,-1.3725174E-2,4.4507995E-2,-8.906759E-3,6.0393523E-2],"split_indices":[1,7,7,4,8,3,7,13,11,6,12,6,0,13,0,8,13,6,13,8,7,0,0,11,13,0,13,0,0,0,0,0,0,0,0,0,0,0,0,0,0,0,0,0,0],"split_type":[0,0,0,0,0,0,0,0,0,0,0,0,0,0,0,0,0,0,0,0,0,0,0,0,0,0,0,0,0,0,0,0,0,0,0,0,0,0,0,0,0,0,0,0,0],"sum_hessian":[4.530897E2,2.953632E2,1.5772652E2,2.4341045E2,5.195274E1,8.0150024E1,7.757649E1,1.809799E2,6.2430546E1,4.3413486E1,8.53925E0,5.9242584E1,2.0907438E1,7.4208855E1,3.3676343E0,1.2671914E2,5.4260765E1,4.9126118E1,1.3304427E1,1.1859429E1,3.1554058E1,3.677807E0,4.8614435E0,1.50294285E1,4.4213154E1,5.107912E1,2.3129734E1,7.084613E1,5.587301E1,2.3806257E1,3.0454506E1,1.4303091E1,3.482303E1,5.431715E0,7.8727117E0,4.8369393E0,7.02249E0,2.2072258E1,9.481801E0,4.6792045E0,1.0350224E1,4.0510573E0,4.0162098E1,3.5120828E0,1.9617651E1],"tree_param":{"num_deleted":"0","num_feature":"16","num_nodes":"45","size_leaf_vector":"1"}},{"base_weights":[-1.9279901E-2,-5.6404865E-1,9.966072E-1,-7.2319466E-1,1.6258663E-1,3.3595276E-1,1.1210049E0,-1.0361452E0,-4.6118125E-1,-5.018937E-2,8.132987E-1,-2.1241935E-1,5.462872E-1,3.309393E-1,1.1645974E0,-5.910584E-1,-1.1980158E0,-7.386329E-1,1.1080699E-2,-7.0381904E-1,2.0728056E-1,1.0440186E0,3.8830738E-3,-2.7192745E-2,9.9056875E-3,7.828241E-1,-2.3040336E-2,-1.229472E-2,4.4606302E-2,9.479903E-1,1.3024431E0,-8.362795E-3,-5.0130893E-2,-6.855253E-2,-4.9686115E-2,-4.483783E-2,-1.119674E-2,-1.596616E-2,2.6265977E-2,-5.0796177E-2,-1.1033833E-3,-2.0453721E-2,2.3025459E-2,7.531082E-2,1.9664327E-2,4.9705174E-2,2.5517106E-2,3.3499856E-2,5.4568153E-2,6.6414E-2,2.6546022E-2],"categories":[],"categories_nodes":[],"categories_segments":[],"categories_sizes":[],"default_left":[0,0,0,0,0,0,0,0,0,0,0,0,0,0,0,0,0,0,0,0,0,0,0,0,0,0,0,0,0,0,0,0,0,0,0,0,0,0,0,0,0,0,0,0,0,0,0,0,0,0,0],"id":6,"left_children":[1,3,5,7,9,11,13,15,17,19,21,23,25,27,29,31,33,35,37,39,41,43,-1,-1,-1,45,-1,-1,-1,47,49,-1,-1,-1,-1,-1,-1,-1,-1,-1,-1,-1,-1,-1,-1,-1,-1,-1,-1,-1,-1],"loss_changes":[2.4461653E2,3.3456314E1,1.2155243E1,1.8756256E1,7.374106E0,3.148168E0,3.9168549E0,6.804016E0,1.719942E1,6.9817023E0,2.028368E0,1.203057E0,4.967368E0,2.9630241E0,2.1824799E0,5.0539827E0,1.1280594E0,6.396965E0,8.547874E0,2.3702135E0,4.8121486E0,2.1593075E0,0E0,0E0,0E0,2.6342964E-1,0E0,0E0,0E0,1.1411133E0,5.358887E-1,0E0,0E0,0E0,0E0,0E0,0E0,0E0,0E0,0E0,0E0,0E0,0E0,0E0,0E0,0E0,0E0,0E0,0E0,0E0,0E0],"parents":[2147483647,0,0,1,1,2,2,3,3,4,4,5,5,6,6,7,7,8,8,9,9,10,10,11,11,12,12,13,13,14,14,15,15,16,16,17,17,18,18,19,19,20,20,21,21,25,25,29,29,30,30],"right_children":[2,4,6,8,10,12,14,16,18,20,22,24,26,28,30,32,34,36,38,40,42,44,-1,-1,-1,46,-1,-1,-1,48,50,-1,-1,-1,-1,-1,-1,-1,-1,-1,-1,-1,-1,-1,-1,-1,-1,-1,-1,-1,-1],"split_conditions":[3E0,4E0,1E0,2E0,7.3E1,2E0,1E0,5.7E1,1E0,1E0,7.9E1,1E0,7E1,1E0,3E0,1E0,1E0,2E0,2E0,6.7E1,1E0,1E0,3.8830738E-3,-2.7192745E-2,9.9056875E-3,1E0,-2.3040336E-2,-1.229472E-2,4.4606302E-2,1E0,8E0,-8.362795E-3,-5.0130893E-2,-6.855253E-2,-4.9686115E-2,-4.483783E-2,-1.119674E-2,-1.596616E-2,2.6265977E-2,-5.0796177E-2,-1.1033833E-3,-2.0453721E-2,2.3025459E-2,7.531082E-2,1.9664327E-2,4.9705174E-2,2.5517106E-2,3.3499856E-2,5.4568153E-2,6.6414E-2,2.6546022E-2],"split_indices":[0,7,7,0,8,6,6,8,4,6,8,5,8,15,7,7,5,7,6,8,12,14,0,0,0,11,0,0,0,14,7,0,0,0,0,0,0,0,0,0,0,0,0,0,0,0,0,0,0,0,0],"split_type":[0,0,0,0,0,0,0,0,0,0,0,0,0,0,0,0,0,0,0,0,0,0,0,0,0,0,0,0,0,0,0,0,0,0,0,0,0,0,0,0,0,0,0,0,0,0,0,0,0,0,0],"sum_hessian":[4.4006842E2,2.8681E2,1.5325844E2,2.3539636E2,5.141362E1,2.4998785E1,1.2825966E2,1.05750755E2,1.2964561E2,3.932421E1,1.2089411E1,6.795802E0,1.8202982E1,7.2759895E0,1.2098367E2,2.9608116E1,7.614264E1,8.144486E1,4.8200752E1,1.0732584E1,2.8591625E1,8.780437E0,3.3089728E0,3.7152243E0,3.080578E0,1.5001543E1,3.2014391E0,3.777156E0,3.4988332E0,5.0395756E1,7.058791E1,1.5399692E1,1.42084255E1,3.7868053E1,3.8274586E1,6.1587574E1,1.9857288E1,2.9458153E1,1.87426E1,6.925332E0,3.8072517E0,8.0318575E0,2.0559769E1,4.2754073E0,4.5050306E0,6.7513237E0,8.250219E0,1.9315155E1,3.10806E1,6.747699E1,3.1109257E0],"tree_param":{"num_deleted":"0","num_feature":"16","num_nodes":"51","size_leaf_vector":"1"}},{"base_weights":[1.3520726E-2,-5.376052E-1,9.9547374E-1,-8.9445037E-1,-2.4790907E-1,8.6883175E-1,6.249956E-2,-1.0428001E0,-3.8846835E-1,-5.509871E-1,2.850723E-1,7.413515E-1,6.1623294E-2,-4.899871E-1,-1.1753345E0,-7.892785E-1,2.512275E-1,-7.5250006E-1,-2.5819576E-1,-3.4262817E-2,4.2896307E-1,6.12562E-1,9.773731E-1,-1.0130762E-2,-6.7934245E-2,-6.0573515E-2,-1.624783E-2,-7.2493814E-2,-2.3502268E-2,-2.8133811E-3,4.248351E-2,-4.4868868E-2,-1.0832942E-2,-3.5253577E-2,5.140006E-3,1.189204E-2,6.00851E-2,1.8585825E-2,3.9554168E-2,5.3724434E-2,2.408396E-2],"categories":[],"categories_nodes":[],"categories_segments":[],"categories_sizes":[],"default_left":[0,0,0,0,0,0,0,0,0,0,0,0,0,0,0,0,0,0,0,0,0,0,0,0,0,0,0,0,0,0,0,0,0,0,0,0,0,0,0,0,0],"id":7,"left_children":[1,3,5,7,9,11,-1,13,15,17,19,21,-1,23,25,27,29,31,33,-1,35,37,39,-1,-1,-1,-1,-1,-1,-1,-1,-1,-1,-1,-1,-1,-1,-1,-1,-1,-1],"loss_changes":[2.4126843E2,2.9172737E1,3.8688965E0,9.011932E0,2.5881535E1,4.0149765E0,0E0,6.4187164E0,8.103514E0,5.715473E0,8.395559E0,1.8135719E0,0E0,4.751653E0,1.8488846E0,3.1678638E0,2.419707E0,4.322529E0,7.1108675E0,0E0,7.1608973E0,2.0696697E0,6.703701E-1,0E0,0E0,0E0,0E0,0E0,0E0,0E0,0E0,0E0,0E0,0E0,0E0,0E0,0E0,0E0,0E0,0E0,0E0],"parents":[2147483647,0,0,1,1,2,2,3,3,4,4,5,5,7,7,8,8,9,9,10,10,11,11,13,13,14,14,15,15,16,16,17,17,18,18,20,20,21,21,22,22],"right_children":[2,4,6,8,10,12,-1,14,16,18,20,22,-1,24,26,28,30,32,34,-1,36,38,40,-1,-1,-1,-1,-1,-1,-1,-1,-1,-1,-1,-1,-1,-1,-1,-1,-1,-1],"split_conditions":[3E0,2E0,1E0,1E0,1E0,2E0,6.249956E-2,5.4E1,6.6E1,6.7E1,5.3E1,1E0,6.1623294E-2,1E0,3E0,5.3E1,1E0,1E0,1E0,-3.4262817E-2,1E0,6.3E1,6.9E1,-1.0130762E-2,-6.7934245E-2,-6.0573515E-2,-1.624783E-2,-7.2493814E-2,-2.3502268E-2,-2.8133811E-3,4.248351E-2,-4.4868868E-2,-1.0832942E-2,-3.5253577E-2,5.140006E-3,1.189204E-2,6.00851E-2,1.8585825E-2,3.9554168E-2,5.3724434E-2,2.408396E-2],"split_indices":[0,0,15,10,4,3,0,8,8,8,8,12,0,15,11,8,15,12,10,0,12,8,8,0,0,0,0,0,0,0,0,0,0,0,0,0,0,0,0,0,0],"split_type":[0,0,0,0,0,0,0,0,0,0,0,0,0,0,0,0,0,0,0,0,0,0,0,0,0,0,0,0,0,0,0,0,0,0,0,0,0,0,0,0,0],"sum_hessian":[4.437459E2,2.844485E2,1.5929742E2,1.2636296E2,1.5808551E2,1.0957968E2,4.9717747E1,9.674079E1,2.9622171E1,1.0087635E2,5.720916E1,8.358927E1,2.5990406E1,1.976225E1,7.697854E1,1.8163853E1,1.145832E1,5.86198E1,4.225655E1,6.812397E0,5.0396763E1,5.6679905E1,2.6909369E1,1.5863004E1,3.8992476E0,7.3320656E1,3.6578856E0,4.6618876E0,1.3501965E1,8.0572E0,3.4011192E0,4.5465736E1,1.3154066E1,1.8580135E1,2.3676416E1,4.15559E1,8.840861E0,2.5678741E1,3.1001165E1,2.135596E1,5.5534077E0],"tree_param":{"num_deleted":"0","num_feature":"16","num_nodes":"41","size_leaf_vector":"1"}},{"base_weights":[9.774775E-3,-4.8088855E-1,9.360842E-1,-6.545575E-1,2.571802E-1,6.7708296E-1,1.1833645E0,-8.0765027E-1,-2.1376775E-1,2.4916627E-2,1.0361922E0,4.637979E-1,1.1972167E0,2.6427645E-2,1.2264305E0,-9.749105E-1,-6.0351515E-1,-3.8693804E-1,3.9077088E-1,-6.7445236E-1,2.7982768E-1,6.56083E-2,4.9038427E-3,-3.6900632E-2,5.695271E-1,8.1264454E-1,7.445183E-2,6.257529E-2,2.4094554E-2,-5.087763E-2,-8.037566E-3,-4.4012357E-2,-9.080035E-3,-3.3147976E-2,6.0289525E-3,-1.10704005E-2,3.574347E-2,-5.4169703E-2,-1.3149892E-2,-1.7626561E-3,5.057571E-2,4.6219514E-3,3.6748942E-2,1.67655E-2,4.749843E-2],"categories":[],"categories_nodes":[],"categories_segments":[],"categories_sizes":[],"default_left":[0,0,0,0,0,0,0,0,0,0,0,0,0,0,0,0,0,0,0,0,0,0,0,0,0,0,0,0,0,0,0,0,0,0,0,0,0,0,0,0,0,0,0,0,0],"id":8,"left_children":[1,3,5,7,9,11,13,15,17,19,21,23,25,-1,27,29,31,33,35,37,39,-1,-1,-1,41,43,-1,-1,-1,-1,-1,-1,-1,-1,-1,-1,-1,-1,-1,-1,-1,-1,-1,-1,-1],"loss_changes":[2.003653E2,3.71323E1,8.791595E0,1.5488037E1,9.906306E0,7.8329773E0,1.3356857E0,5.1553116E0,6.614579E0,7.968633E0,2.9971914E0,7.5769377E0,9.900894E-1,0E0,5.4815674E-1,2.9510727E0,9.160406E0,6.9459667E0,3.0085435E0,1.5835285E0,7.730992E0,0E0,0E0,0E0,3.9958057E0,3.193612E-1,0E0,0E0,0E0,0E0,0E0,0E0,0E0,0E0,0E0,0E0,0E0,0E0,0E0,0E0,0E0,0E0,0E0,0E0,0E0],"parents":[2147483647,0,0,1,1,2,2,3,3,4,4,5,5,6,6,7,7,8,8,9,9,10,10,11,11,12,12,14,14,15,15,16,16,17,17,18,18,19,19,20,20,24,24,25,25],"right_children":[2,4,6,8,10,12,14,16,18,20,22,24,26,-1,28,30,32,34,36,38,40,-1,-1,-1,42,44,-1,-1,-1,-1,-1,-1,-1,-1,-1,-1,-1,-1,-1,-1,-1,-1,-1,-1,-1],"split_conditions":[1E0,4E0,3E0,1E0,7.3E1,2E0,1E0,6.5E1,2E0,1E0,3.52844E1,2.2110914E1,1E0,2.6427645E-2,8E0,3E0,1E0,2E0,5.8E1,3.2057426E1,6E0,6.56083E-2,4.9038427E-3,-3.6900632E-2,2E0,5.5E1,7.445183E-2,6.257529E-2,2.4094554E-2,-5.087763E-2,-8.037566E-3,-4.4012357E-2,-9.080035E-3,-3.3147976E-2,6.0289525E-3,-1.10704005E-2,3.574347E-2,-5.4169703E-2,-1.3149892E-2,-1.7626561E-3,5.057571E-2,4.6219514E-3,3.6748942E-2,1.67655E-2,4.749843E-2],"split_indices":[1,7,7,4,8,3,6,8,3,6,13,13,14,0,7,11,10,6,8,13,7,0,0,0,6,8,0,0,0,0,0,0,0,0,0,0,0,0,0,0,0,0,0,0,0],"split_type":[0,0,0,0,0,0,0,0,0,0,0,0,0,0,0,0,0,0,0,0,0,0,0,0,0,0,0,0,0,0,0,0,0,0,0,0,0,0,0,0,0,0,0,0,0],"sum_hessian":[4.387513E2,2.8706616E2,1.5168518E2,2.325867E2,5.447945E1,7.611006E1,7.557511E1,1.718437E2,6.0742996E1,4.286079E1,1.1618658E1,5.5454464E1,2.0655598E1,5.626108E0,6.9949005E1,9.2108215E1,7.973548E1,4.76259E1,1.3117095E1,1.0904711E1,3.195608E1,8.587171E0,3.031488E0,3.924066E0,5.15304E1,1.0692283E1,9.963315E0,6.6881294E1,3.067709E0,8.716999E1,4.9382305E0,4.735331E1,3.2382175E1,3.0777702E1,1.68482E1,4.543441E0,8.573654E0,4.528121E0,6.3765893E0,2.290697E1,9.049111E0,1.3825891E1,3.770451E1,3.3204465E0,7.3718357E0],"tree_param":{"num_deleted":"0","num_feature":"16","num_nodes":"45","size_leaf_vector":"1"}},{"base_weights":[-9.48883E-3,-4.924884E-1,8.804311E-1,-8.2726854E-1,-2.3013645E-1,2.8512236E-1,9.814366E-1,-9.2936003E-1,-3.9269143E-1,-4.8274717E-1,1.8882114E-1,-1.689489E-2,4.5783818E-1,8.1767035E-1,1.1224092E0,-1.0775813E0,-6.02284E-1,2.8687355E-1,-7.396661E-1,-4.0855035E-1,-7.261289E-2,-2.8830145E-3,8.3749723E-1,2.0179704E-1,5.0633706E-2,1.1113962E0,6.751149E-1,2.9621169E-2,5.844881E-2,-3.82184E-2,-6.587057E-2,-4.2006735E-2,1.4919507E-2,-1.1431008E-2,3.2546543E-2,-5.5929553E-2,8.076533E-3,-2.3995956E-2,1.583389E-2,-8.595643E-3,2.8329028E-2,5.1678568E-2,3.8681438E-3,2.824995E-2,-5.663606E-3,1.5737351E-2,6.502585E-2,3.7241142E-2,-8.807127E-3],"categories":[],"categories_nodes":[],"categories_segments":[],"categories_sizes":[],"default_left":[0,0,0,0,0,0,0,0,0,0,0,0,0,0,0,0,0,0,0,0,0,0,0,0,0,0,0,0,0,0,0,0,0,0,0,0,0,0,0,0,0,0,0,0,0,0,0,0,0],"id":9,"left_children":[1,3,5,7,9,11,13,15,17,19,21,-1,23,25,27,29,31,33,35,37,-1,39,41,43,-1,45,47,-1,-1,-1,-1,-1,-1,-1,-1,-1,-1,-1,-1,-1,-1,-1,-1,-1,-1,-1,-1,-1,-1],"loss_changes":[1.8585095E2,2.4330269E1,8.737785E0,4.9437714E0,1.692162E1,2.7075734E0,1.8771057E0,3.9528427E0,6.210576E0,6.3756847E0,7.5824294E0,0E0,2.3787515E0,1.7467194E0,7.7407074E-1,3.759781E0,7.408593E0,1.9095004E0,6.1125517E0,5.027544E0,0E0,4.6214337E0,1.87679E0,1.7568767E0,0E0,2.3072872E0,2.9057007E0,0E0,0E0,0E0,0E0,0E0,0E0,0E0,0E0,0E0,0E0,0E0,0E0,0E0,0E0,0E0,0E0,0E0,0E0,0E0,0E0,0E0,0E0],"parents":[2147483647,0,0,1,1,2,2,3,3,4,4,5,5,6,6,7,7,8,8,9,9,10,10,12,12,13,13,14,14,15,15,16,16,17,17,18,18,19,19,21,21,22,22,23,23,25,25,26,26],"right_children":[2,4,6,8,10,12,14,16,18,20,22,-1,24,26,28,30,32,34,36,38,-1,40,42,44,-1,46,48,-1,-1,-1,-1,-1,-1,-1,-1,-1,-1,-1,-1,-1,-1,-1,-1,-1,-1,-1,-1,-1,-1],"split_conditions":[3E0,2E0,1E0,2E0,1E0,2.4579573E1,1E0,6.8E1,5.5E1,4.09484E1,4E0,-1.689489E-2,2E0,2.6005138E1,2.2261738E1,5.9E1,1E0,5.1E1,1E0,7.7E1,-7.261289E-2,1E0,3.5357643E1,1E0,5.0633706E-2,2.1201815E1,7.6E1,2.9621169E-2,5.844881E-2,-3.82184E-2,-6.587057E-2,-4.2006735E-2,1.4919507E-2,-1.1431008E-2,3.2546543E-2,-5.5929553E-2,8.076533E-3,-2.3995956E-2,1.583389E-2,-8.595643E-3,2.8329028E-2,5.1678568E-2,3.8681438E-3,2.824995E-2,-5.663606E-3,1.5737351E-2,6.502585E-2,3.7241142E-2,-8.807127E-3],"split_indices":[0,0,7,3,4,13,5,8,8,13,7,0,3,13,13,8,10,8,10,8,0,11,13,11,0,13,8,0,0,0,0,0,0,0,0,0,0,0,0,0,0,0,0,0,0,0,0,0,0],"split_type":[0,0,0,0,0,0,0,0,0,0,0,0,0,0,0,0,0,0,0,0,0,0,0,0,0,0,0,0,0,0,0,0,0,0,0,0,0,0,0,0,0,0,0,0,0,0,0,0,0],"sum_hessian":[4.3046292E2,2.7938635E2,1.5107657E2,1.21635796E2,1.5775055E2,2.2612906E1,1.2846367E2,9.7388504E1,2.4247297E1,9.846653E1,5.928402E1,4.5749154E0,1.803799E1,6.290141E1,6.5562256E1,6.5228516E1,3.2159985E1,8.156819E0,1.6090477E1,9.288274E1,5.58379E0,4.6409847E1,1.2874171E1,1.3398773E1,4.639217E0,1.8103222E1,4.4798187E1,6.5770597E0,5.8985195E1,3.0283262E1,3.4945255E1,2.5582405E1,6.5775766E0,3.4165008E0,4.740319E0,1.1235877E1,4.8545995E0,8.499466E1,7.888075E0,3.6461082E1,9.948767E0,9.843736E0,3.0304358E0,6.0029244E0,7.395849E0,4.085704E0,1.4017518E1,4.163156E1,3.1666274E0],"tree_param":{"num_deleted":"0","num_feature":"16","num_nodes":"49","size_leaf_vector":"1"}},{"base_weights":[1.814089E-2,-4.263872E-1,8.5761803E-1,-8.241337E-1,-1.3479932E-1,3.318252E-1,9.5262456E-1,-9.1662455E-1,-1.3066487E-1,-3.7803665E-1,2.6759496E-1,5.6142735E-1,-4.67587E-2,7.6615757E-1,1.1105596E0,-6.1220086E-1,-1.0188655E0,-4.7059822E-1,4.3282844E-2,-1.4703698E-1,-8.0257833E-1,4.1249192E-1,-6.5185446E-1,3.1943178E-1,9.314536E-1,6.175848E-1,1.1111563E0,8.5348064E-1,1.2082008E0,-4.1103717E-2,2.3865035E-2,-6.653612E-2,-3.680397E-2,-1.2797177E-3,-6.500593E-2,-2.040817E-2,1.6662678E-2,-5.5925287E-2,-1.6014924E-2,1.2619291E-2,5.2565932E-2,-4.9248677E-2,-9.305714E-3,1.3009687E-3,3.857255E-2,1.8012552E-2,6.26482E-2,5.782308E-2,2.0066338E-2,2.6494337E-2,6.0778063E-2,4.6957444E-2,1.2548397E-2,2.6014034E-2,6.255697E-2],"categories":[],"categories_nodes":[],"categories_segments":[],"categories_sizes":[],"default_left":[0,0,0,0,0,0,0,0,0,0,0,0,0,0,0,0,0,0,0,0,0,0,0,0,0,0,0,0,0,0,0,0,0,0,0,0,0,0,0,0,0,0,0,0,0,0,0,0,0,0,0,0,0,0,0],"id":10,"left_children":[1,3,5,7,9,11,13,15,17,19,21,23,-1,25,27,29,31,33,-1,35,37,39,41,43,45,47,49,51,53,-1,-1,-1,-1,-1,-1,-1,-1,-1,-1,-1,-1,-1,-1,-1,-1,-1,-1,-1,-1,-1,-1,-1,-1,-1,-1],"loss_changes":[1.6207123E2,3.271019E1,7.068001E0,7.4540405E0,1.627238E1,7.676266E0,2.6921158E0,2.4916382E0,5.577337E0,9.934531E0,8.589308E0,1.5125928E0,0E0,2.2987099E0,4.211502E-1,7.111388E0,5.6132126E0,4.334429E0,0E0,8.72051E0,4.995968E0,5.210574E0,1.0680196E0,1.8566699E0,8.3077335E-1,4.6844006E0,2.185421E-1,7.744026E-1,5.069504E-1,0E0,0E0,0E0,0E0,0E0,0E0,0E0,0E0,0E0,0E0,0E0,0E0,0E0,0E0,0E0,0E0,0E0,0E0,0E0,0E0,0E0,0E0,0E0,0E0,0E0,0E0],"parents":[2147483647,0,0,1,1,2,2,3,3,4,4,5,5,6,6,7,7,8,8,9,9,10,10,11,11,13,13,14,14,15,15,16,16,17,17,19,19,20,20,21,21,22,22,23,23,24,24,25,25,26,26,27,27,28,28],"right_children":[2,4,6,8,10,12,14,16,18,20,22,24,-1,26,28,30,32,34,-1,36,38,40,42,44,46,48,50,52,54,-1,-1,-1,-1,-1,-1,-1,-1,-1,-1,-1,-1,-1,-1,-1,-1,-1,-1,-1,-1,-1,-1,-1,-1,-1,-1],"split_conditions":[3E0,2E0,1E0,5E0,2E0,2E0,1E0,5.7E1,1E0,1E0,3.938807E1,2E0,-4.67587E-2,2E0,3E0,5.6E1,6.6E1,3.445923E1,4.3282844E-2,1E0,3.2743835E1,3.66981E1,6.4E1,3.9642155E1,2.715875E1,5.5E1,5.3E1,7.1E1,1.9587902E1,-4.1103717E-2,2.3865035E-2,-6.653612E-2,-3.680397E-2,-1.2797177E-3,-6.500593E-2,-2.040817E-2,1.6662678E-2,-5.5925287E-2,-1.6014924E-2,1.2619291E-2,5.2565932E-2,-4.9248677E-2,-9.305714E-3,1.3009687E-3,3.857255E-2,1.8012552E-2,6.26482E-2,5.782308E-2,2.0066338E-2,2.6494337E-2,6.0778063E-2,4.6957444E-2,1.2548397E-2,2.6014034E-2,6.255697E-2],"split_indices":[0,0,7,7,7,11,5,8,15,10,13,3,0,3,7,8,8,13,0,7,13,13,8,13,13,8,8,8,13,0,0,0,0,0,0,0,0,0,0,0,0,0,0,0,0,0,0,0,0,0,0,0,0,0,0],"split_type":[0,0,0,0,0,0,0,0,0,0,0,0,0,0,0,0,0,0,0,0,0,0,0,0,0,0,0,0,0,0,0,0,0,0,0,0,0,0,0,0,0,0,0,0,0,0,0,0,0,0,0,0,0,0,0],"sum_hessian":[4.3221252E2,2.8282254E2,1.4938998E2,1.18716095E2,1.6410645E2,2.371113E1,1.2567885E2,1.0433455E2,1.4381542E1,1.0247307E2,6.1633377E1,2.0611738E1,3.0993922E0,6.0607025E1,6.507182E1,2.8233833E1,7.6100716E1,1.1191251E1,3.190291E0,6.738808E1,3.5084995E1,5.3813057E1,7.8203225E0,1.3751703E1,6.8600354E0,4.4516212E1,1.6090813E1,2.0875092E1,4.419673E1,2.395631E1,4.2775216E0,3.4259697E1,4.184102E1,8.033182E0,3.1580687E0,4.388621E1,2.3501862E1,2.027614E1,1.4808857E1,4.4269592E1,9.543464E0,3.7841525E0,4.03617E0,9.114281E0,4.6374226E0,3.3463542E0,3.5136812E0,1.1371199E1,3.3145016E1,3.520989E0,1.2569824E1,1.7641975E1,3.2331154E0,3.5040393E0,4.069269E1],"tree_param":{"num_deleted":"0","num_feature":"16","num_nodes":"55","size_leaf_vector":"1"}},{"base_weights":[4.471956E-2,-3.7660328E-1,8.125893E-1,-5.403277E-1,2.122782E-2,1.031611E-1,8.4808725E-1,-6.606222E-1,-7.327879E-2,-7.778163E-1,2.810569E-1,-2.2597913E-2,3.8471103E-2,7.3179334E-1,1.0449225E0,-6.9833004E-1,-0E0,-6.366455E-2,6.863179E-2,-9.5785624E-1,-9.044003E-3,1.4648458E-1,7.6306266E-1,6.042087E-1,9.747116E-1,8.146669E-1,6.007379E-2,-2.7241698E-2,-4.2977173E-2,-1.4446892E-2,2.2804901E-2,1.3146646E-2,-1.1022256E-2,-5.4733574E-2,-2.5171934E-2,1.7778775E-2,-3.4749599E-3,2.0951463E-2,6.251047E-2,4.0470894E-2,2.3865378E-2,3.8918618E-2,6.341982E-2,7.406404E-3,5.244409E-2],"categories":[],"categories_nodes":[],"categories_segments":[],"categories_sizes":[],"default_left":[0,0,0,0,0,0,0,0,0,0,0,0,0,0,0,0,0,0,0,0,0,0,0,0,0,0,0,0,0,0,0,0,0,0,0,0,0,0,0,0,0,0,0,0,0],"id":11,"left_children":[1,3,5,7,9,11,13,15,17,19,21,-1,-1,23,25,27,29,-1,31,33,-1,35,37,39,41,43,-1,-1,-1,-1,-1,-1,-1,-1,-1,-1,-1,-1,-1,-1,-1,-1,-1,-1,-1],"loss_changes":[1.4016222E2,1.8278126E1,3.6833115E0,1.1021076E1,1.725912E1,3.5558107E0,2.3979645E0,3.8724747E0,7.3458E0,1.902092E0,3.8802805E0,0E0,0E0,2.2094154E0,6.774063E-1,3.0737762E0,1.3852382E0,0E0,2.2166486E0,2.3959255E-1,0E0,2.3387852E0,1.5447102E0,1.1891117E0,5.924244E-1,3.5066032E0,0E0,0E0,0E0,0E0,0E0,0E0,0E0,0E0,0E0,0E0,0E0,0E0,0E0,0E0,0E0,0E0,0E0,0E0,0E0],"parents":[2147483647,0,0,1,1,2,2,3,3,4,4,5,5,6,6,7,7,8,8,9,9,10,10,13,13,14,14,15,15,16,16,18,18,19,19,21,21,22,22,23,23,24,24,25,25],"right_children":[2,4,6,8,10,12,14,16,18,20,22,-1,-1,24,26,28,30,-1,32,34,-1,36,38,40,42,44,-1,-1,-1,-1,-1,-1,-1,-1,-1,-1,-1,-1,-1,-1,-1,-1,-1,-1,-1],"split_conditions":[3E0,1E0,1E0,2E0,2E0,1E0,1E0,3E0,1E0,1E0,2E0,-2.2597913E-2,3.8471103E-2,1E0,1E0,1E0,2E0,-6.366455E-2,1E0,2E0,-9.044003E-3,1E0,2E0,1E0,2E0,1E0,6.007379E-2,-2.7241698E-2,-4.2977173E-2,-1.4446892E-2,2.2804901E-2,1.3146646E-2,-1.1022256E-2,-5.4733574E-2,-2.5171934E-2,1.7778775E-2,-3.4749599E-3,2.0951463E-2,6.251047E-2,4.0470894E-2,2.3865378E-2,3.8918618E-2,6.341982E-2,7.406404E-3,5.244409E-2],"split_indices":[0,4,6,3,0,15,12,14,0,15,3,0,0,15,5,14,6,0,5,6,0,14,6,11,3,4,0,0,0,0,0,0,0,0,0,0,0,0,0,0,0,0,0,0,0],"split_type":[0,0,0,0,0,0,0,0,0,0,0,0,0,0,0,0,0,0,0,0,0,0,0,0,0,0,0,0,0,0,0,0,0,0,0,0,0,0,0,0,0,0,0,0,0],"sum_hessian":[4.311592E2,2.7864737E2,1.5251184E2,1.9733058E2,8.131677E1,7.588023E0,1.4492381E2,1.5641527E2,4.091532E1,1.9370094E1,6.1946674E1,4.232839E0,3.3551838E0,9.4385155E1,5.053866E1,1.478151E2,8.600166E0,3.55828E0,3.7357044E1,1.4288457E1,5.081638E0,4.9607903E1,1.2338774E1,6.4439445E1,2.9945711E1,2.3223904E1,2.7314753E1,7.828115E1,6.953395E1,5.5831347E0,3.0170314E0,2.2601776E1,1.4755267E1,9.72996E0,4.5584965E0,2.5113024E1,2.4494877E1,8.442177E0,3.896597E0,2.226646E1,4.217299E1,2.0339117E1,9.606595E0,6.574189E0,1.6649715E1],"tree_param":{"num_deleted":"0","num_feature":"16","num_nodes":"45","size_leaf_vector":"1"}},{"base_weights":[-5.7527507E-3,-4.1796145E-1,7.9405546E-1,-7.74659E-1,-1.560856E-1,6.6754407E-1,1.0150275E0,-8.955361E-1,-3.5037473E-1,-3.730792E-1,2.1114543E-1,9.666185E-1,5.4443985E-1,7.323728E-1,6.0432255E-2,-2.6398253E-1,-1.0272301E0,-7.373953E-1,4.532325E-1,-2.77591E-1,-1.0858814E0,3.0949596E-2,9.4844633E-1,6.5041967E-3,1.0847265E0,8.164297E-2,6.976208E-1,1.0252348E0,1.0882148E-1,1.3641777E-2,-3.0175328E-2,-3.373105E-2,-5.695967E-2,-4.692793E-2,5.7580885E-3,3.373459E-3,4.414597E-2,-1.87153E-2,7.173683E-2,-7.105264E-2,-1.9449022E-2,1.2185281E-2,-2.227924E-2,1.1239928E-2,5.8090538E-2,1.993118E-2,5.8880527E-2,2.415896E-2,-2.3705088E-2,4.605433E-2,2.435271E-2,6.267725E-2,2.2128757E-2,-2.0405186E-2,2.6110286E-2],"categories":[],"categories_nodes":[],"categories_segments":[],"categories_sizes":[],"default_left":[0,0,0,0,0,0,0,0,0,0,0,0,0,0,0,0,0,0,0,0,0,0,0,0,0,0,0,0,0,0,0,0,0,0,0,0,0,0,0,0,0,0,0,0,0,0,0,0,0,0,0,0,0,0,0],"id":12,"left_children":[1,3,5,7,9,11,13,15,17,19,21,23,25,27,-1,29,31,33,35,37,39,41,43,-1,45,47,49,51,53,-1,-1,-1,-1,-1,-1,-1,-1,-1,-1,-1,-1,-1,-1,-1,-1,-1,-1,-1,-1,-1,-1,-1,-1,-1,-1],"loss_changes":[1.3991605E2,2.5959866E1,3.1879807E0,5.624237E0,1.30832405E1,2.8191185E0,1.6748886E0,7.182846E0,9.082408E0,6.5718527E0,7.977874E0,2.3226185E0,4.8135643E0,4.0128527E0,0E0,3.33419E0,2.0096817E0,3.5155115E0,1.4447609E0,1.5714333E1,1.9989395E0,5.1746306E0,1.4280863E0,0E0,8.187809E-1,4.392526E0,1.8644333E0,1.3458195E0,2.0716577E0,0E0,0E0,0E0,0E0,0E0,0E0,0E0,0E0,0E0,0E0,0E0,0E0,0E0,0E0,0E0,0E0,0E0,0E0,0E0,0E0,0E0,0E0,0E0,0E0,0E0,0E0],"parents":[2147483647,0,0,1,1,2,2,3,3,4,4,5,5,6,6,7,7,8,8,9,9,10,10,11,11,12,12,13,13,15,15,16,16,17,17,18,18,19,19,20,20,21,21,22,22,24,24,25,25,26,26,27,27,28,28],"right_children":[2,4,6,8,10,12,14,16,18,20,22,24,26,28,-1,30,32,34,36,38,40,42,44,-1,46,48,50,52,54,-1,-1,-1,-1,-1,-1,-1,-1,-1,-1,-1,-1,-1,-1,-1,-1,-1,-1,-1,-1,-1,-1,-1,-1,-1,-1],"split_conditions":[3E0,2E0,1E0,1E0,1E0,5.6E1,1E0,5.3E1,3.7156765E1,3.938807E1,1E0,4.5E1,6.3E1,6.6E1,6.0432255E-2,2.7505262E1,2.7671946E1,1E0,1E0,3.873838E1,1E0,3.52844E1,5.9E1,6.5041967E-3,2.4729843E1,5.9E1,6.9E1,3.423267E1,7.2E1,1.3641777E-2,-3.0175328E-2,-3.373105E-2,-5.695967E-2,-4.692793E-2,5.7580885E-3,3.373459E-3,4.414597E-2,-1.87153E-2,7.173683E-2,-7.105264E-2,-1.9449022E-2,1.2185281E-2,-2.227924E-2,1.1239928E-2,5.8090538E-2,1.993118E-2,5.8880527E-2,2.415896E-2,-2.3705088E-2,4.605433E-2,2.435271E-2,6.267725E-2,2.2128757E-2,-2.0405186E-2,2.6110286E-2],"split_indices":[0,0,12,10,4,8,5,8,13,13,12,8,8,8,0,13,13,12,15,13,15,13,8,0,13,8,8,13,8,0,0,0,0,0,0,0,0,0,0,0,0,0,0,0,0,0,0,0,0,0,0,0,0,0,0],"split_type":[0,0,0,0,0,0,0,0,0,0,0,0,0,0,0,0,0,0,0,0,0,0,0,0,0,0,0,0,0,0,0,0,0,0,0,0,0,0,0,0,0,0,0,0,0,0,0,0,0,0,0,0,0,0,0],"sum_hessian":[4.224968E2,2.792026E2,1.432942E2,1.17211044E2,1.6199155E2,9.396859E1,4.9325623E1,9.01743E1,2.7036749E1,1.0198555E2,6.0005997E1,2.5165678E1,6.880291E1,2.2206411E1,2.7119211E1,1.620849E1,7.3965805E1,1.8387894E1,8.648854E0,9.128639E1,1.0699161E1,4.916718E1,1.0838818E1,3.4782236E0,2.1687454E1,1.7653423E1,5.1149487E1,1.4562373E1,7.6440377E0,6.241695E0,9.966795E0,1.9734348E1,5.423146E1,1.4890789E1,3.4971051E0,5.2896614E0,3.3591928E0,8.720095E1,4.0854454E0,6.4260054E0,4.273155E0,3.447412E1,1.4693058E1,3.0424159E0,7.7964015E0,3.3452742E0,1.834218E1,1.0428874E1,7.22455E0,2.2947256E1,2.8202229E1,9.512095E0,5.0502768E0,3.2948232E0,4.3492146E0],"tree_param":{"num_deleted":"0","num_feature":"16","num_nodes":"55","size_leaf_vector":"1"}},{"base_weights":[4.7970932E-2,-3.878705E-1,8.802778E-1,-6.9722825E-1,-1.5853114E-1,6.564751E-1,5.4357957E-2,-7.447924E-1,-0E0,-2.891875E-1,4.119569E-1,7.960298E-1,1.8665777E-1,-8.2191527E-1,-1.4880249E-1,4.8079494E-2,-5.9639215E-2,-4.7884896E-1,-8.781967E-2,7.1132004E-1,-4.8787735E-2,3.5543218E-1,4.633284E-2,-2.4460673E-2,3.8336554E-1,-3.0213937E-2,-5.1366415E-2,-2.4364376E-2,2.0358901E-2,-1.7998366E-2,-5.360968E-2,-1.7183864E-2,1.4019759E-2,1.8307367E-2,5.5726018E-2,-5.0821204E-2,2.0961259E-2,-5.859421E-3,3.9123967E-2,3.6831588E-2,-7.180422E-3],"categories":[],"categories_nodes":[],"categories_segments":[],"categories_sizes":[],"default_left":[0,0,0,0,0,0,0,0,0,0,0,0,0,0,0,0,0,0,0,0,0,0,0,0,0,0,0,0,0,0,0,0,0,0,0,0,0,0,0,0,0],"id":13,"left_children":[1,3,5,7,9,11,-1,13,15,17,19,21,23,25,27,-1,-1,29,31,33,35,37,-1,-1,39,-1,-1,-1,-1,-1,-1,-1,-1,-1,-1,-1,-1,-1,-1,-1,-1],"loss_changes":[1.5565843E2,1.9778233E1,5.9408035E0,3.9872856E0,1.2268257E1,4.579008E0,0E0,4.919697E0,1.0970751E1,4.9992476E0,4.3317857E0,2.7814026E0,2.6134887E0,3.6251373E0,2.8749526E0,0E0,0E0,4.2857037E0,6.3416967E0,2.0587683E0,6.3209653E0,3.118425E0,0E0,0E0,2.9334235E0,0E0,0E0,0E0,0E0,0E0,0E0,0E0,0E0,0E0,0E0,0E0,0E0,0E0,0E0,0E0,0E0],"parents":[2147483647,0,0,1,1,2,2,3,3,4,4,5,5,7,7,8,8,9,9,10,10,11,11,12,12,13,13,14,14,17,17,18,18,19,19,20,20,21,21,24,24],"right_children":[2,4,6,8,10,12,-1,14,16,18,20,22,24,26,28,-1,-1,30,32,34,36,38,-1,-1,40,-1,-1,-1,-1,-1,-1,-1,-1,-1,-1,-1,-1,-1,-1,-1,-1],"split_conditions":[3E0,2E0,3E0,4.4876163E1,4E0,2E0,5.4357957E-2,5E0,1E0,1E0,3.241329E1,2E0,1E0,1E0,1E0,4.8079494E-2,-5.9639215E-2,2E0,2E0,2E0,3.5194542E1,3.0397179E1,4.633284E-2,-2.4460673E-2,2E0,-3.0213937E-2,-5.1366415E-2,-2.4364376E-2,2.0358901E-2,-1.7998366E-2,-5.360968E-2,-1.7183864E-2,1.4019759E-2,1.8307367E-2,5.5726018E-2,-5.0821204E-2,2.0961259E-2,-5.859421E-3,3.9123967E-2,3.6831588E-2,-7.180422E-3],"split_indices":[0,0,7,13,7,11,0,7,7,7,13,6,7,14,10,0,0,14,6,6,13,13,0,0,7,0,0,0,0,0,0,0,0,0,0,0,0,0,0,0,0],"split_type":[0,0,0,0,0,0,0,0,0,0,0,0,0,0,0,0,0,0,0,0,0,0,0,0,0,0,0,0,0,0,0,0,0,0,0,0,0,0,0,0,0],"sum_hessian":[4.2702512E2,2.805353E2,1.464898E2,1.1837802E2,1.6215729E2,7.260396E1,7.388585E1,1.1080536E2,7.5726624E0,1.3248355E2,2.9673746E1,5.5277206E1,1.7326752E1,9.7625465E1,1.317989E1,4.3176355E0,3.2550268E0,6.725952E1,6.522403E1,1.778885E1,1.1884896E1,1.3666697E1,4.161051E1,3.4561927E0,1.3870559E1,4.955266E1,4.8072803E1,8.380932E0,4.798958E0,5.751176E1,9.747762E0,3.8682995E1,2.654103E1,1.0745733E1,7.0431175E0,3.5620632E0,8.322832E0,6.7204614E0,6.9462347E0,8.179319E0,5.6912394E0],"tree_param":{"num_deleted":"0","num_feature":"16","num_nodes":"41","size_leaf_vector":"1"}},{"base_weights":[1.6786538E-2,-4.0196684E-1,7.977968E-1,-5.260923E-1,1.5190479E-1,5.8530825E-1,1.0109334E0,-6.367561E-1,-2.2313483E-1,-2.5544262E-1,4.2004156E-1,4.3673775E-1,8.672119E-1,8.2485855E-1,1.1108881E0,-7.462634E-1,-4.14568E-1,-3.560461E-1,6.890432E-1,9.343869E-2,-5.308639E-2,-9.9661365E-2,5.5061307E-2,5.420963E-1,1.0206687E-1,5.248178E-1,5.7439942E-2,5.2465726E-2,6.436684E-1,5.767181E-2,2.255818E-2,-2.2887478E-2,-4.5262408E-2,-3.21249E-2,-3.1342674E-3,-2.7062824E-2,-1.561978E-3,6.8162486E-2,-1.7572026E-3,-3.703619E-2,2.0724181E-2,-2.4087064E-2,3.8273312E-2,4.356381E-2,2.0207688E-2,-2.1540264E-2,2.439069E-2,3.7984718E-2,-2.8502978E-3,1.6942946E-2,5.47715E-2],"categories":[],"categories_nodes":[],"categories_segments":[],"categories_sizes":[],"default_left":[0,0,0,0,0,0,0,0,0,0,0,0,0,0,0,0,0,0,0,0,0,0,0,0,0,0,0,0,0,0,0,0,0,0,0,0,0,0,0,0,0,0,0,0,0,0,0,0,0,0,0],"id":14,"left_children":[1,3,5,7,9,11,13,15,17,19,21,23,25,27,29,31,33,35,37,39,-1,41,-1,43,45,47,-1,-1,49,-1,-1,-1,-1,-1,-1,-1,-1,-1,-1,-1,-1,-1,-1,-1,-1,-1,-1,-1,-1,-1,-1],"loss_changes":[1.3646875E2,1.8782528E1,5.846115E0,7.2202454E0,5.621363E0,2.6554203E0,2.1279144E-1,3.5147858E0,7.6343284E0,5.9496174E0,1.1141577E1,1.7041826E0,1.623743E0,3.381672E-1,5.270157E-1,4.3539658E0,4.3819094E0,3.185758E0,4.1017904E0,4.3206005E0,0E0,6.4057727E0,0E0,1.2859125E0,3.0616555E0,1.9183722E0,0E0,0E0,2.0916557E0,0E0,0E0,0E0,0E0,0E0,0E0,0E0,0E0,0E0,0E0,0E0,0E0,0E0,0E0,0E0,0E0,0E0,0E0,0E0,0E0,0E0,0E0],"parents":[2147483647,0,0,1,1,2,2,3,3,4,4,5,5,6,6,7,7,8,8,9,9,10,10,11,11,12,12,13,13,14,14,15,15,16,16,17,17,18,18,19,19,21,21,23,23,24,24,25,25,28,28],"right_children":[2,4,6,8,10,12,14,16,18,20,22,24,26,28,30,32,34,36,38,40,-1,42,-1,44,46,48,-1,-1,50,-1,-1,-1,-1,-1,-1,-1,-1,-1,-1,-1,-1,-1,-1,-1,-1,-1,-1,-1,-1,-1,-1],"split_conditions":[3E0,4E0,3E0,1E0,2E0,1E0,5E0,6.8E1,7.6E1,1E0,1E0,2E0,1E0,5.8E1,8E0,5.7E1,1E0,2E0,1E0,5E0,-5.308639E-2,2E0,5.5061307E-2,5.5E1,1E0,2E0,5.7439942E-2,5.2465726E-2,7.1E1,5.767181E-2,2.255818E-2,-2.2887478E-2,-4.5262408E-2,-3.21249E-2,-3.1342674E-3,-2.7062824E-2,-1.561978E-3,6.8162486E-2,-1.7572026E-3,-3.703619E-2,2.0724181E-2,-2.4087064E-2,3.8273312E-2,4.356381E-2,2.0207688E-2,-2.1540264E-2,2.439069E-2,3.7984718E-2,-2.8502978E-3,1.6942946E-2,5.47715E-2],"split_indices":[0,7,7,4,0,15,7,8,8,4,4,11,5,8,7,8,10,6,14,7,0,6,0,8,4,11,0,0,8,0,0,0,0,0,0,0,0,0,0,0,0,0,0,0,0,0,0,0,0,0,0],"split_type":[0,0,0,0,0,0,0,0,0,0,0,0,0,0,0,0,0,0,0,0,0,0,0,0,0,0,0,0,0,0,0,0,0,0,0,0,0,0,0,0,0,0,0,0,0,0,0,0,0,0,0],"sum_hessian":[4.1516937E2,2.7049545E2,1.4467395E2,2.211625E2,4.933294E1,7.4557976E1,7.011597E1,1.60942E2,6.0220505E1,1.9453705E1,2.9879236E1,5.072734E1,2.3830637E1,2.808534E1,4.2030624E1,1.0592646E2,5.5015533E1,5.3189667E1,7.030836E0,1.4108857E1,5.3448467E0,1.73495E1,1.25297365E1,3.788278E1,1.2844562E1,1.2206782E1,1.1623855E1,1.0158271E1,1.7927069E1,3.8638733E1,3.3918939E0,3.92346E1,6.6691864E1,3.2714703E1,2.2300833E1,3.325361E1,1.993606E1,3.255578E0,3.775258E0,3.47115E0,1.0637708E1,1.2422085E1,4.9274154E0,9.402919E0,2.847986E1,5.235785E0,7.6087766E0,8.600861E0,3.605922E0,1.1881741E1,6.045328E0],"tree_param":{"num_deleted":"0","num_feature":"16","num_nodes":"51","size_leaf_vector":"1"}},{"base_weights":[2.0473935E-2,-3.3103883E-1,7.3555773E-1,-6.18106E-1,-1.1482271E-1,5.6284034E-1,9.0805954E-1,-6.8601064E-2,-5.3603655E-1,-2.7611772E-2,-7.9034036E-1,8.4627366E-1,4.1892046E-1,7.3834026E-1,5.6999613E-2,-6.600998E-1,-1.4175184E-1,-1.1080433E-1,8.1406265E-2,-7.160497E-2,-4.494435E-1,9.910254E-1,1.3483091E-2,1.24854796E-1,8.197677E-1,3.9997602E-1,9.6113855E-1,-6.4544114E-3,-3.9904624E-2,-1.972749E-2,2.1520806E-2,1.3972325E-3,-1.768491E-2,-4.44635E-3,-4.99947E-2,3.2510366E-2,6.0161818E-2,-1.8432742E-2,1.3787157E-2,3.818021E-3,5.1861256E-2,-2.346549E-2,3.0892944E-2,3.8122993E-2,6.2358946E-2],"categories":[],"categories_nodes":[],"categories_segments":[],"categories_sizes":[],"default_left":[0,0,0,0,0,0,0,0,0,0,0,0,0,0,0,0,0,0,0,0,0,0,0,0,0,0,0,0,0,0,0,0,0,0,0,0,0,0,0,0,0,0,0,0,0],"id":15,"left_children":[1,3,5,7,9,11,13,-1,15,17,19,21,23,25,-1,27,29,31,-1,-1,33,35,-1,37,39,41,43,-1,-1,-1,-1,-1,-1,-1,-1,-1,-1,-1,-1,-1,-1,-1,-1,-1,-1],"loss_changes":[1.0546533E2,1.730555E1,3.4626312E0,6.520401E0,9.427526E0,2.4572563E0,1.6187592E0,0E0,5.2216415E0,1.9926405E1,3.1785965E0,1.5300598E0,5.6955233E0,2.6409378E0,0E0,5.9178696E0,4.1968064E0,4.711311E0,0E0,0E0,2.4873867E0,3.274536E-1,0E0,2.3380811E0,3.1767588E0,3.81655E0,2.3451614E-1,0E0,0E0,0E0,0E0,0E0,0E0,0E0,0E0,0E0,0E0,0E0,0E0,0E0,0E0,0E0,0E0,0E0,0E0],"parents":[2147483647,0,0,1,1,2,2,3,3,4,4,5,5,6,6,8,8,9,9,10,10,11,11,12,12,13,13,15,15,16,16,17,17,20,20,21,21,23,23,24,24,25,25,26,26],"right_children":[2,4,6,8,10,12,14,-1,16,18,20,22,24,26,-1,28,30,32,-1,-1,34,36,-1,38,40,42,44,-1,-1,-1,-1,-1,-1,-1,-1,-1,-1,-1,-1,-1,-1,-1,-1,-1,-1],"split_conditions":[3E0,2E0,1E0,2.107506E1,3.938807E1,2.5886505E1,3.4911766E1,-6.8601064E-2,1E0,3.842524E1,1E0,1E0,1E0,1E0,5.6999613E-2,2.7671946E1,1E0,1E0,8.1406265E-2,-7.160497E-2,4.3364033E1,2.2110914E1,1.3483091E-2,2.8644522E1,1E0,1E0,1E0,-6.4544114E-3,-3.9904624E-2,-1.972749E-2,2.1520806E-2,1.3972325E-3,-1.768491E-2,-4.44635E-3,-4.99947E-2,3.2510366E-2,6.0161818E-2,-1.8432742E-2,1.3787157E-2,3.818021E-3,5.1861256E-2,-2.346549E-2,3.0892944E-2,3.8122993E-2,6.2358946E-2],"split_indices":[0,0,5,13,13,13,13,0,10,13,6,15,15,14,0,13,15,10,0,0,13,13,0,13,11,11,15,0,0,0,0,0,0,0,0,0,0,0,0,0,0,0,0,0,0],"split_type":[0,0,0,0,0,0,0,0,0,0,0,0,0,0,0,0,0,0,0,0,0,0,0,0,0,0,0,0,0,0,0,0,0,0,0,0,0,0,0,0,0,0,0,0,0],"sum_hessian":[4.174474E2,2.8013773E2,1.373097E2,1.1935305E2,1.6078467E2,7.103171E1,6.6277985E1,1.0054362E1,1.0929868E2,1.434534E2,1.7331266E1,2.204387E1,4.8987835E1,4.0936687E1,2.5341295E1,8.243301E1,2.6865679E1,1.3753636E2,5.9170437E0,4.800227E0,1.2531038E1,1.6907347E1,5.1365232E0,2.9158102E1,1.9829733E1,1.7541082E1,2.3395603E1,1.7551802E1,6.48812E1,1.8969631E1,7.896048E0,8.783523E1,4.970113E1,8.383502E0,4.1475368E0,8.228036E0,8.679312E0,6.3343635E0,2.2823738E1,4.8976083E0,1.4932124E1,3.1922138E0,1.4348869E1,1.617553E1,7.2200747E0],"tree_param":{"num_deleted":"0","num_feature":"16","num_nodes":"45","size_leaf_vector":"1"}},{"base_weights":[-2.6399394E-2,-3.8716882E-1,6.7531425E-1,-5.409378E-1,-1.785865E-2,5.294122E-1,9.5075506E-1,-6.5223026E-1,-1.3243558E-1,-8.00941E-1,2.4834168E-1,2.7916503E-1,7.917084E-1,4.1458407E-1,1.0498068E0,-7.577405E-1,-1.1137147E-1,-6.9587004E-1,9.524801E-2,-5.088831E-2,-0E0,6.20482E-2,8.38168E-1,9.869685E-2,8.042446E-1,9.8602116E-1,3.1858122E-1,1.6163494E-3,3.523497E-2,2.5561407E-2,1.127515E0,-4.5444265E-2,-1.4693086E-2,-2.1251034E-2,1.5331633E-2,-1.3102706E-2,-6.555483E-2,1.1313954E-2,-3.6202673E-2,-4.9397033E-3,3.2570563E-2,5.0759293E-2,5.4428796E-3,-1.5089395E-3,3.6880422E-2,1.3530972E-2,5.2497573E-2,1.6146079E-2,5.3370297E-2,-3.304142E-2,4.008416E-2,6.309655E-2,3.306744E-2],"categories":[],"categories_nodes":[],"categories_segments":[],"categories_sizes":[],"default_left":[0,0,0,0,0,0,0,0,0,0,0,0,0,0,0,0,0,0,0,0,0,0,0,0,0,0,0,0,0,0,0,0,0,0,0,0,0,0,0,0,0,0,0,0,0,0,0,0,0,0,0,0,0],"id":16,"left_children":[1,3,5,7,9,11,13,15,17,19,21,23,25,27,29,31,33,35,37,-1,-1,39,41,43,45,47,49,-1,-1,-1,51,-1,-1,-1,-1,-1,-1,-1,-1,-1,-1,-1,-1,-1,-1,-1,-1,-1,-1,-1,-1,-1,-1],"loss_changes":[1.0324313E2,1.5237137E1,4.91201E0,8.474419E0,1.7022541E1,5.775799E0,1.8848801E0,8.325493E0,5.5314517E0,3.5312977E0,6.5278454E0,4.5047455E0,3.661518E0,9.073856E-1,8.664627E-1,8.325012E0,3.5026567E0,2.8013635E0,3.4163556E0,0E0,0E0,4.607152E0,1.6311522E0,3.221349E0,1.2012386E0,1.1910248E0,7.4661303E0,0E0,0E0,0E0,1.0132446E0,0E0,0E0,0E0,0E0,0E0,0E0,0E0,0E0,0E0,0E0,0E0,0E0,0E0,0E0,0E0,0E0,0E0,0E0,0E0,0E0,0E0,0E0],"parents":[2147483647,0,0,1,1,2,2,3,3,4,4,5,5,6,6,7,7,8,8,9,9,10,10,11,11,12,12,13,13,14,14,15,15,16,16,17,17,18,18,21,21,22,22,23,23,24,24,25,25,26,26,30,30],"right_children":[2,4,6,8,10,12,14,16,18,20,22,24,26,28,30,32,34,36,38,-1,-1,40,42,44,46,48,50,-1,-1,-1,52,-1,-1,-1,-1,-1,-1,-1,-1,-1,-1,-1,-1,-1,-1,-1,-1,-1,-1,-1,-1,-1,-1],"split_conditions":[3E0,1E0,1E0,2E0,2E0,3E0,1E0,4E0,2.7228708E1,3.842524E1,4E0,2E0,3.3948242E1,1E0,2.4579573E1,3.762752E1,1E0,2.48577E1,2E0,-5.088831E-2,-0E0,1E0,3.5957645E1,2E0,1E0,1.9342587E1,3.6618908E1,1.6163494E-3,3.523497E-2,2.5561407E-2,3.811224E1,-4.5444265E-2,-1.4693086E-2,-2.1251034E-2,1.5331633E-2,-1.3102706E-2,-6.555483E-2,1.1313954E-2,-3.6202673E-2,-4.9397033E-3,3.2570563E-2,5.0759293E-2,5.4428796E-3,-1.5089395E-3,3.6880422E-2,1.3530972E-2,5.2497573E-2,1.6146079E-2,5.3370297E-2,-3.304142E-2,4.008416E-2,6.309655E-2,3.306744E-2],"split_indices":[0,4,15,3,0,7,11,7,13,13,7,3,13,5,13,13,9,13,14,0,0,11,13,14,4,13,13,0,0,0,13,0,0,0,0,0,0,0,0,0,0,0,0,0,0,0,0,0,0,0,0,0,0],"split_type":[0,0,0,0,0,0,0,0,0,0,0,0,0,0,0,0,0,0,0,0,0,0,0,0,0,0,0,0,0,0,0,0,0,0,0,0,0,0,0,0,0,0,0,0,0,0,0,0,0,0,0,0,0],"sum_hessian":[4.059038E2,2.6846808E2,1.3743573E2,1.8902754E2,7.944054E1,9.199221E1,4.544352E1,1.4789386E2,4.113368E1,1.973954E1,5.9700996E1,4.832892E1,4.3663296E1,8.052131E0,3.739139E1,1.23262115E2,2.4631744E1,1.1372863E1,2.9760817E1,1.5253201E1,4.486339E0,4.633962E1,1.336138E1,3.6992966E1,1.1335951E1,3.003326E1,1.36300335E1,4.1026206E0,3.9495103E0,5.8325925E0,3.1558798E1,9.208374E1,3.1178375E1,1.4199558E1,1.0432186E1,7.601377E0,3.7714853E0,2.638666E1,3.3741553E0,3.692513E1,9.41449E0,1.0325971E1,3.035409E0,3.1446169E1,5.5467963E0,4.3648243E0,6.9711266E0,3.9605348E0,2.6072727E1,4.3124237E0,9.31761E0,2.3004135E1,8.554662E0],"tree_param":{"num_deleted":"0","num_feature":"16","num_nodes":"53","size_leaf_vector":"1"}},{"base_weights":[-6.860152E-3,-3.4522626E-1,6.572581E-1,-4.760629E-1,-2.4783323E-2,4.636873E-1,8.4996283E-1,-6.0154545E-1,-1.6604492E-1,-7.272593E-1,2.0037602E-1,8.505745E-1,3.0527905E-1,3.8810936E-3,9.1116303E-1,-7.373122E-1,-3.060684E-1,2.4211642E-1,-5.3468555E-1,-9.37257E-1,-2.9242276E-3,-5.142319E-2,2.9696295E-1,5.0540037E-2,5.5185235E-1,5.120452E-1,-1.199384E-1,1.0303922E0,5.583139E-1,-2.8922213E-2,-4.8137315E-2,-2.5904745E-2,2.0490278E-2,-1.318727E-2,3.4905795E-2,-3.935338E-2,2.6881713E-2,-5.5866774E-2,-2.4249678E-2,2.4328208E-2,-1.0142279E-2,4.189105E-2,3.365888E-3,1.1298097E-2,4.2764436E-2,-1.7499836E-2,2.7009144E-2,1.6978437E-2,5.3572237E-2,-1.3471005E-2,4.8537105E-2],"categories":[],"categories_nodes":[],"categories_segments":[],"categories_sizes":[],"default_left":[0,0,0,0,0,0,0,0,0,0,0,0,0,0,0,0,0,0,0,0,0,0,0,0,0,0,0,0,0,0,0,0,0,0,0,0,0,0,0,0,0,0,0,0,0,0,0,0,0,0,0],"id":17,"left_children":[1,3,5,7,9,11,13,15,17,19,21,23,25,-1,27,29,31,33,35,37,-1,-1,39,-1,41,43,45,47,49,-1,-1,-1,-1,-1,-1,-1,-1,-1,-1,-1,-1,-1,-1,-1,-1,-1,-1,-1,-1,-1,-1],"loss_changes":[9.158481E1,1.1265408E1,4.604042E0,7.27573E0,1.278974E1,3.9798527E0,3.0186577E0,5.11615E0,8.706377E0,2.6047573E0,7.467657E0,2.3840809E-1,4.686699E0,0E0,1.8862076E0,2.586689E0,7.005247E0,6.5753694E0,8.645534E0,5.008707E-1,0E0,0E0,5.563655E0,0E0,1.1511037E0,3.1790657E0,2.860766E0,7.758255E-1,6.5193987E0,0E0,0E0,0E0,0E0,0E0,0E0,0E0,0E0,0E0,0E0,0E0,0E0,0E0,0E0,0E0,0E0,0E0,0E0,0E0,0E0,0E0,0E0],"parents":[2147483647,0,0,1,1,2,2,3,3,4,4,5,5,6,6,7,7,8,8,9,9,10,10,11,11,12,12,14,14,15,15,16,16,17,17,18,18,19,19,22,22,24,24,25,25,26,26,27,27,28,28],"right_children":[2,4,6,8,10,12,14,16,18,20,22,24,26,-1,28,30,32,34,36,38,-1,-1,40,-1,42,44,46,48,50,-1,-1,-1,-1,-1,-1,-1,-1,-1,-1,-1,-1,-1,-1,-1,-1,-1,-1,-1,-1,-1,-1],"split_conditions":[3E0,1E0,1E0,3.630748E1,2E0,5.5E1,2.2488293E1,6.8E1,3.954231E1,1E0,1.9342587E1,5.1E1,3.4585484E1,3.8810936E-3,6.8E1,3.0330652E1,2E0,3.762752E1,2E0,6.6E1,-2.9242276E-3,-5.142319E-2,3.5957645E1,5.0540037E-2,2.9450014E1,2.7881739E1,7.2E1,5E1,1E0,-2.8922213E-2,-4.8137315E-2,-2.5904745E-2,2.0490278E-2,-1.318727E-2,3.4905795E-2,-3.935338E-2,2.6881713E-2,-5.5866774E-2,-2.4249678E-2,2.4328208E-2,-1.0142279E-2,4.189105E-2,3.365888E-3,1.1298097E-2,4.2764436E-2,-1.7499836E-2,2.7009144E-2,1.6978437E-2,5.3572237E-2,-1.3471005E-2,4.8537105E-2],"split_indices":[0,4,5,13,0,8,13,8,13,15,13,8,13,0,8,13,3,13,3,8,0,0,13,0,13,13,8,8,4,0,0,0,0,0,0,0,0,0,0,0,0,0,0,0,0,0,0,0,0,0,0],"split_type":[0,0,0,0,0,0,0,0,0,0,0,0,0,0,0,0,0,0,0,0,0,0,0,0,0,0,0,0,0,0,0,0,0,0,0,0,0,0,0,0,0,0,0,0,0,0,0,0,0,0,0],"sum_hessian":[4.0568875E2,2.6917548E2,1.3651329E2,1.9056871E2,7.860677E1,7.006176E1,6.645152E1,1.3476033E2,5.580838E1,1.8646282E1,5.9960495E1,1.8900202E1,5.116156E1,5.1655145E0,6.1286007E1,9.107783E1,4.36825E1,2.6518677E1,2.9289705E1,1.377112E1,4.875162E0,3.5909367E0,5.6369556E1,1.0532406E1,8.367796E0,3.444387E1,1.6717691E1,4.4160416E1,1.7125593E1,5.577884E1,3.5298985E1,3.4021904E1,9.660593E0,1.2667893E1,1.3850783E1,2.4000254E1,5.2894506E0,8.639476E0,5.131644E0,4.1031086E1,1.5338471E1,4.6738286E0,3.6939673E0,1.9849525E1,1.4594343E1,1.2857886E1,3.8598044E0,3.1337585E0,4.1026657E1,5.7299647E0,1.1395629E1],"tree_param":{"num_deleted":"0","num_feature":"16","num_nodes":"51","size_leaf_vector":"1"}},{"base_weights":[2.7279137E-2,-2.9693E-1,6.5899104E-1,-3.9557523E-1,1.611882E-1,4.2609957E-1,8.7927866E-1,-4.9652356E-1,-2.2886507E-3,3.0129737E-1,-4.97553E-2,5.496307E-2,5.6098276E-1,1.1542852E-2,9.241685E-1,-4.2984816E-1,-7.1742214E-2,-4.6264153E-2,1.2614459E-1,-1.5568322E-1,4.6622345E-1,2.8567415E-1,-3.3126425E-2,4.245007E-1,9.2520016E-1,9.5902365E-1,1.070701E-2,-3.9425846E-2,-1.5283748E-2,5.6117643E-2,-1.3097422E-3,-2.6610792E-2,3.6019262E-2,3.527717E-3,3.1981565E-2,-4.3386887E-3,2.916455E-2,-3.400039E-2,2.6991863E-2,5.312118E-2,2.1398528E-2,5.005868E-2,2.473674E-2],"categories":[],"categories_nodes":[],"categories_segments":[],"categories_sizes":[],"default_left":[0,0,0,0,0,0,0,0,0,0,0,0,0,0,0,0,0,0,0,0,0,0,0,0,0,0,0,0,0,0,0,0,0,0,0,0,0,0,0,0,0,0,0],"id":18,"left_children":[1,3,5,7,9,11,13,15,17,19,-1,21,23,-1,25,27,-1,-1,29,31,33,35,-1,37,39,41,-1,-1,-1,-1,-1,-1,-1,-1,-1,-1,-1,-1,-1,-1,-1,-1,-1],"loss_changes":[8.417273E1,1.2353584E1,6.647526E0,8.834629E0,8.107625E0,3.4083986E0,1.722889E0,1.0326088E1,5.7587614E0,3.4358244E0,0E0,3.453517E0,2.0067158E0,0E0,1.2970161E0,7.1146393E0,0E0,0E0,6.5090938E0,4.426483E0,2.141089E0,1.862507E0,0E0,5.338504E0,2.7306175E-1,5.676956E-1,0E0,0E0,0E0,0E0,0E0,0E0,0E0,0E0,0E0,0E0,0E0,0E0,0E0,0E0,0E0,0E0,0E0],"parents":[2147483647,0,0,1,1,2,2,3,3,4,4,5,5,6,6,7,7,8,8,9,9,11,11,12,12,14,14,15,15,18,18,19,19,20,20,21,21,23,23,24,24,25,25],"right_children":[2,4,6,8,10,12,14,16,18,20,-1,22,24,-1,26,28,-1,-1,30,32,34,36,-1,38,40,42,-1,-1,-1,-1,-1,-1,-1,-1,-1,-1,-1,-1,-1,-1,-1,-1,-1],"split_conditions":[3E0,4E0,3E0,2E0,4.0521378E1,2E0,1E0,1E0,2.089705E1,1E0,-4.97553E-2,2E0,2E0,1.1542852E-2,8E0,1E0,-7.1742214E-2,-4.6264153E-2,2.48577E1,1E0,5E0,1E0,-3.3126425E-2,2.331099E1,3.291281E1,2E0,1.070701E-2,-3.9425846E-2,-1.5283748E-2,5.6117643E-2,-1.3097422E-3,-2.6610792E-2,3.6019262E-2,3.527717E-3,3.1981565E-2,-4.3386887E-3,2.916455E-2,-3.400039E-2,2.6991863E-2,5.312118E-2,2.1398528E-2,5.005868E-2,2.473674E-2],"split_indices":[0,7,7,3,13,6,6,12,13,6,0,7,3,0,7,6,0,0,13,15,7,7,0,13,13,12,0,0,0,0,0,0,0,0,0,0,0,0,0,0,0,0,0],"split_type":[0,0,0,0,0,0,0,0,0,0,0,0,0,0,0,0,0,0,0,0,0,0,0,0,0,0,0,0,0,0,0,0,0,0,0,0,0,0,0,0,0,0,0],"sum_hessian":[4.088539E2,2.7043307E2,1.3842084E2,2.2281071E2,4.762236E1,6.8932526E1,6.9488304E1,1.7689001E2,4.5920696E1,4.321221E1,4.410149E0,1.8947258E1,4.998527E1,5.041119E0,6.444718E1,1.666153E2,1.0274713E1,4.9465065E0,4.097419E1,1.1313698E1,3.1898516E1,1.4897992E1,4.0492663E0,3.81351E1,1.185017E1,6.0962997E1,3.4841835E0,4.1265713E1,1.2534959E2,4.677186E0,3.6297005E1,8.267138E0,3.0465596E0,1.0324464E1,2.157405E1,6.7825327E0,8.115459E0,3.060798E0,3.5074303E1,8.23869E0,3.6114798E0,5.4631584E1,6.3314147E0],"tree_param":{"num_deleted":"0","num_feature":"16","num_nodes":"43","size_leaf_vector":"1"}},{"base_weights":[1.1860841E-2,-3.0091077E-1,6.106195E-1,-4.878881E-1,1.18299566E-1,4.7123033E-1,8.942752E-1,-5.840663E-1,1.5245502E-1,3.4505713E-1,-6.172369E-1,-2.4337986E-2,5.281714E-1,4.5396262E-1,9.854874E-1,-7.0287275E-1,-3.4224045E-1,-4.6618438E-1,4.8296222E-1,1.5616539E-1,8.1496227E-1,-9.68966E-1,2.3509571E-2,1.1095518E-1,6.4971787E-1,-7.57051E-3,5.4695018E-2,1.0488043E0,2.2769859E-2,-2.2270976E-2,-4.8076224E-2,-1.1179686E-2,-6.688156E-2,-4.4072386E-2,2.3340965E-3,5.198137E-3,4.8911043E-2,1.718618E-2,-1.3475817E-3,2.1483896E-3,4.8820592E-2,-6.2660515E-2,-2.3093015E-2,-1.422667E-2,1.9318365E-2,1.6720863E-2,-4.6459705E-2,4.189465E-2,1.822408E-2,2.1756737E-2,5.5453528E-2],"categories":[],"categories_nodes":[],"categories_segments":[],"categories_sizes":[],"default_left":[0,0,0,0,0,0,0,0,0,0,0,0,0,0,0,0,0,0,0,0,0,0,0,0,0,0,0,0,0,0,0,0,0,0,0,0,0,0,0,0,0,0,0,0,0,0,0,0,0,0,0],"id":19,"left_children":[1,3,5,7,9,11,13,15,17,19,21,-1,23,25,27,29,31,33,35,37,39,41,43,45,47,-1,-1,49,-1,-1,-1,-1,-1,-1,-1,-1,-1,-1,-1,-1,-1,-1,-1,-1,-1,-1,-1,-1,-1,-1,-1],"loss_changes":[7.675927E1,2.1183E1,5.0045624E0,1.1613083E1,1.4133536E1,5.5351257E0,1.2161446E0,4.3212433E0,5.3385277E0,5.5153728E0,4.615784E0,0E0,4.508934E0,4.04292E0,5.882797E-1,6.6017723E0,6.1268225E0,2.064609E0,2.9606442E0,1.6727809E0,2.1185513E0,1.1251106E0,1.008672E0,5.3903623E0,3.3705215E0,0E0,0E0,5.256233E-1,0E0,0E0,0E0,0E0,0E0,0E0,0E0,0E0,0E0,0E0,0E0,0E0,0E0,0E0,0E0,0E0,0E0,0E0,0E0,0E0,0E0,0E0,0E0],"parents":[2147483647,0,0,1,1,2,2,3,3,4,4,5,5,6,6,7,7,8,8,9,9,10,10,12,12,13,13,14,14,15,15,16,16,17,17,18,18,19,19,20,20,21,21,22,22,23,23,24,24,27,27],"right_children":[2,4,6,8,10,12,14,16,18,20,22,-1,24,26,28,30,32,34,36,38,40,42,44,46,48,-1,-1,50,-1,-1,-1,-1,-1,-1,-1,-1,-1,-1,-1,-1,-1,-1,-1,-1,-1,-1,-1,-1,-1,-1,-1],"split_conditions":[1E0,1E0,1E0,5E0,1E0,1E0,2.666521E1,3.5628685E1,1E0,3E0,1E0,-2.4337986E-2,1E0,1E0,4.1841778E1,2.870069E1,3E0,3.3786167E1,6E0,1E0,5.4E1,3.3460007E1,3.615097E1,2E0,3.1094976E1,-7.57051E-3,5.4695018E-2,4.9E1,2.2769859E-2,-2.2270976E-2,-4.8076224E-2,-1.1179686E-2,-6.688156E-2,-4.4072386E-2,2.3340965E-3,5.198137E-3,4.8911043E-2,1.718618E-2,-1.3475817E-3,2.1483896E-3,4.8820592E-2,-6.2660515E-2,-2.3093015E-2,-1.422667E-2,1.9318365E-2,1.6720863E-2,-4.6459705E-2,4.189465E-2,1.822408E-2,2.1756737E-2,5.5453528E-2],"split_indices":[1,4,15,7,9,6,13,13,6,7,10,0,7,5,13,13,7,13,7,14,8,13,13,11,13,0,0,8,0,0,0,0,0,0,0,0,0,0,0,0,0,0,0,0,0,0,0,0,0,0,0],"split_type":[0,0,0,0,0,0,0,0,0,0,0,0,0,0,0,0,0,0,0,0,0,0,0,0,0,0,0,0,0,0,0,0,0,0,0,0,0,0,0,0,0,0,0,0,0,0,0,0,0,0,0],"sum_hessian":[4.0772876E2,2.6804263E2,1.3968613E2,1.8541711E2,8.2625534E1,9.56817E1,4.4004425E1,1.6141672E2,2.4000395E1,6.3665127E1,1.8960403E1,4.8460464E0,9.0835655E1,8.765189E0,3.523924E1,1.0668397E2,5.4732754E1,8.108996E0,1.5891398E1,4.6513035E1,1.7152094E1,1.2010968E1,6.9494357E0,2.1109945E1,6.972571E1,4.8162303E0,3.9489584E0,3.043654E1,4.802698E0,5.502381E1,5.1660156E1,5.0087597E1,4.6451554E0,4.191494E0,3.9175024E0,9.802109E0,6.0892897E0,2.281437E1,2.3698664E1,3.292769E0,1.3859324E1,6.6275682E0,5.3833995E0,3.726305E0,3.2231305E0,1.8014421E1,3.0955248E0,4.0631992E1,2.909372E1,3.6052353E0,2.6831305E1],"tree_param":{"num_deleted":"0","num_feature":"16","num_nodes":"51","size_leaf_vector":"1"}},{"base_weights":[2.1647835E-2,-2.9940954E-1,6.5331835E-1,-3.832493E-1,2.4031869E-1,1.2999325E-1,7.519729E-1,-6.276825E-1,-2.1272588E-1,-4.2586777E-2,3.7572923E-1,-2.3264575E-1,2.8011543E-1,5.4604226E-1,4.788692E-2,-1.915899E-1,-7.8730506E-1,-1.4607486E-1,-9.4628173E-1,2.356072E-1,4.724257E-2,-2.9875284E-2,8.47841E-3,4.2988684E-2,3.8176596E-2,-3.5202552E-3,5.876856E-1,1.4563776E-2,-3.89869E-2,-5.2714594E-2,-2.7500713E-2,-1.5221332E-2,6.9657206E-3,6.386649E-3,-7.579478E-2,-4.6288493E-4,4.172018E-2,-1.4344881E-2,1.713345E-2,1.921954E-2,3.751142E-2],"categories":[],"categories_nodes":[],"categories_segments":[],"categories_sizes":[],"default_left":[0,0,0,0,0,0,0,0,0,0,0,0,0,0,0,0,0,0,0,0,0,0,0,0,0,0,0,0,0,0,0,0,0,0,0,0,0,0,0,0,0],"id":20,"left_children":[1,3,5,7,9,11,13,15,17,-1,19,21,23,25,-1,27,29,31,33,35,-1,-1,-1,-1,37,-1,39,-1,-1,-1,-1,-1,-1,-1,-1,-1,-1,-1,-1,-1,-1],"loss_changes":[8.32903E1,1.2420134E1,6.961235E0,9.622669E0,5.7499704E0,1.339866E0,4.2465286E0,6.452099E0,6.6374865E0,0E0,2.3492422E0,1.1979214E0,2.2820494E0,1.648756E0,0E0,8.024245E0,3.693119E0,5.9518223E0,7.3198814E0,4.274868E0,0E0,0E0,0E0,0E0,1.4169462E0,0E0,1.4824619E0,0E0,0E0,0E0,0E0,0E0,0E0,0E0,0E0,0E0,0E0,0E0,0E0,0E0,0E0],"parents":[2147483647,0,0,1,1,2,2,3,3,4,4,5,5,6,6,7,7,8,8,10,10,11,11,12,12,13,13,15,15,16,16,17,17,18,18,19,19,24,24,26,26],"right_children":[2,4,6,8,10,12,14,16,18,-1,20,22,24,26,-1,28,30,32,34,36,-1,-1,-1,-1,38,-1,40,-1,-1,-1,-1,-1,-1,-1,-1,-1,-1,-1,-1,-1,-1],"split_conditions":[3E0,5E0,1E0,2E0,5.3E1,2E0,1E0,5.7E1,1E0,-4.2586777E-2,7.7E1,5.9E1,5.5E1,1E0,4.788692E-2,1E0,6.6E1,2E0,1E0,1E0,4.724257E-2,-2.9875284E-2,8.47841E-3,4.2988684E-2,1E0,-3.5202552E-3,3E0,1.4563776E-2,-3.89869E-2,-5.2714594E-2,-2.7500713E-2,-1.5221332E-2,6.9657206E-3,6.386649E-3,-7.579478E-2,-4.6288493E-4,4.172018E-2,-1.4344881E-2,1.713345E-2,1.921954E-2,3.751142E-2],"split_indices":[0,7,7,0,8,6,5,8,12,0,8,8,8,6,0,7,8,6,7,15,0,0,0,0,5,0,7,0,0,0,0,0,0,0,0,0,0,0,0,0,0],"split_type":[0,0,0,0,0,0,0,0,0,0,0,0,0,0,0,0,0,0,0,0,0,0,0,0,0,0,0,0,0,0,0,0,0,0,0,0,0,0,0,0,0],"sum_hessian":[4.0855762E2,2.7112262E2,1.3743501E2,2.3508102E2,3.604159E1,2.2327478E1,1.1510754E2,9.526215E1,1.3981886E2,3.3109596E0,3.2730633E1,6.180901E0,1.6146578E1,5.9599686E1,5.550785E1,2.628303E1,6.8979126E1,1.2939726E2,1.0421605E1,2.753982E1,5.190811E0,3.1167176E0,3.0641832E0,3.8810372E0,1.226554E1,3.5757508E0,5.6023933E1,1.4617168E1,1.166586E1,3.0640093E1,3.833903E1,8.340349E1,4.599377E1,3.8197017E0,6.601903E0,2.0126898E1,7.4129233E0,5.8013854E0,6.464155E0,2.6659973E1,2.936396E1],"tree_param":{"num_deleted":"0","num_feature":"16","num_nodes":"41","size_leaf_vector":"1"}},{"base_weights":[-1.2937634E-2,-3.0739594E-1,5.8920103E-1,-4.066525E-1,3.2040206E-1,4.1975297E-2,7.0202875E-1,-5.1382494E-1,-1.3940102E-1,4.6897393E-1,-1.5587549E-1,2.1043956E-2,-2.3443002E-1,-0E0,7.4748284E-1,-5.969695E-1,-3.486926E-1,-3.5145808E-2,-4.579017E-2,-1.0714695E-2,5.89766E-1,-3.3328176E-2,2.765295E-2,-3.0188797E-2,-0E0,5.9173197E-1,8.989675E-1,-3.7958026E-2,-1.7865349E-2,-2.1913826E-2,3.2738086E-2,-1.0636971E-2,3.4223396E-2,2.409756E-2,4.4271693E-2,-1.6045386E-2,1.1519332E-2,2.1318298E-2,4.0655553E-2,4.7297273E-2,1.1674105E-2],"categories":[],"categories_nodes":[],"categories_segments":[],"categories_sizes":[],"default_left":[0,0,0,0,0,0,0,0,0,0,0,0,0,0,0,0,0,0,0,0,0,0,0,0,0,0,0,0,0,0,0,0,0,0,0,0,0,0,0,0,0],"id":21,"left_children":[1,3,5,7,9,11,13,15,17,19,21,-1,23,-1,25,27,29,31,-1,-1,33,-1,-1,-1,35,37,39,-1,-1,-1,-1,-1,-1,-1,-1,-1,-1,-1,-1,-1,-1],"loss_changes":[7.066216E1,1.682876E1,7.9741173E0,6.50375E0,2.7216485E0,2.5868173E0,3.5058098E0,1.9606247E0,5.377152E0,2.5245352E0,3.7777588E0,0E0,1.16363E0,0E0,1.7199821E0,3.8088036E0,5.480292E0,7.9077168E0,0E0,0E0,2.2376728E-1,0E0,0E0,0E0,8.075278E-1,1.4852448E0,1.2036171E0,0E0,0E0,0E0,0E0,0E0,0E0,0E0,0E0,0E0,0E0,0E0,0E0,0E0,0E0],"parents":[2147483647,0,0,1,1,2,2,3,3,4,4,5,5,6,6,7,7,8,8,9,9,10,10,12,12,14,14,15,15,16,16,17,17,20,20,24,24,25,25,26,26],"right_children":[2,4,6,8,10,12,14,16,18,20,22,-1,24,-1,26,28,30,32,-1,-1,34,-1,-1,-1,36,38,40,-1,-1,-1,-1,-1,-1,-1,-1,-1,-1,-1,-1,-1,-1],"split_conditions":[3E0,5E0,1E0,1E0,3.6108917E1,1E0,1E0,2E0,4.09484E1,2.331099E1,1E0,2.1043956E-2,2.5288858E1,-0E0,1E0,3.391702E1,3E0,3.7156765E1,-4.579017E-2,-1.0714695E-2,3.52844E1,-3.3328176E-2,2.765295E-2,-3.0188797E-2,1E0,1E0,4E0,-3.7958026E-2,-1.7865349E-2,-2.1913826E-2,3.2738086E-2,-1.0636971E-2,3.4223396E-2,2.409756E-2,4.4271693E-2,-1.6045386E-2,1.1519332E-2,2.1318298E-2,4.0655553E-2,4.7297273E-2,1.1674105E-2],"split_indices":[0,7,7,4,13,11,6,6,13,13,15,0,13,0,5,13,11,13,0,0,13,0,0,0,5,15,11,0,0,0,0,0,0,0,0,0,0,0,0,0,0],"split_type":[0,0,0,0,0,0,0,0,0,0,0,0,0,0,0,0,0,0,0,0,0,0,0,0,0,0,0,0,0,0,0,0,0,0,0,0,0,0,0,0,0],"sum_hessian":[3.966726E2,2.6683856E2,1.2983403E2,2.308518E2,3.598676E1,2.2579504E1,1.07254524E2,1.6384882E2,6.700299E1,2.7601831E1,8.384927E0,9.456027E0,1.3123477E1,6.4909134E0,1.0076361E2,1.0683596E2,5.701286E1,6.010602E1,6.896963E0,3.9059045E0,2.3695929E1,4.990671E0,3.3942559E0,4.321203E0,8.802274E0,5.2426743E1,4.8336864E1,6.2174587E1,4.4661373E1,5.294872E1,4.0641394E0,4.8885014E1,1.1221009E1,1.9539236E1,4.1566925E0,3.6923244E0,5.109949E0,3.1943342E1,2.0483402E1,4.4615654E1,3.7212095E0],"tree_param":{"num_deleted":"0","num_feature":"16","num_nodes":"41","size_leaf_vector":"1"}},{"base_weights":[1.1000701E-2,-2.478456E-1,5.380889E-1,-3.513597E-1,1.4051151E-1,-1.56060895E-2,5.8057785E-1,-6.0530967E-1,-1.521638E-1,2.3414351E-1,-5.4770272E-2,4.179556E-1,7.701523E-1,-5.111227E-1,-6.0040295E-2,-2.4306795E-1,5.309843E-1,-2.8214985E-1,4.8141864E-1,2.4656872E-1,8.7255347E-1,6.348804E-1,9.9300253E-1,-2.84787E-2,9.762232E-3,-3.477265E-2,-6.1602136E-3,6.766599E-2,-8.674826E-3,1.3803783E-2,-4.031643E-2,3.0761207E-2,-2.4508288E-2,-7.3555135E-3,1.5739258E-2,1.488588E-2,5.5148453E-2,3.539658E-2,1.595972E-2,5.9637006E-2,3.2492828E-2],"categories":[],"categories_nodes":[],"categories_segments":[],"categories_sizes":[],"default_left":[0,0,0,0,0,0,0,0,0,0,0,0,0,0,0,0,0,0,0,0,0,0,0,0,0,0,0,0,0,0,0,0,0,0,0,0,0,0,0,0,0],"id":22,"left_children":[1,3,5,7,9,-1,11,13,15,17,-1,19,21,23,-1,25,27,29,31,33,35,37,39,-1,-1,-1,-1,-1,-1,-1,-1,-1,-1,-1,-1,-1,-1,-1,-1,-1,-1],"loss_changes":[5.3262096E1,1.0585741E1,4.8545113E0,1.0304049E1,6.5996766E0,0E0,3.3501282E0,4.2878227E0,7.4014664E0,6.8640065E0,0E0,5.0221605E0,8.739891E-1,3.4507713E0,0E0,5.503118E0,8.458691E0,5.4009285E0,4.9979925E0,1.4437971E0,1.9479733E0,5.3536606E-1,3.3179665E-1,0E0,0E0,0E0,0E0,0E0,0E0,0E0,0E0,0E0,0E0,0E0,0E0,0E0,0E0,0E0,0E0,0E0,0E0],"parents":[2147483647,0,0,1,1,2,2,3,3,4,4,6,6,7,7,8,8,9,9,11,11,12,12,13,13,15,15,16,16,17,17,18,18,19,19,20,20,21,21,22,22],"right_children":[2,4,6,8,10,-1,12,14,16,18,-1,20,22,24,-1,26,28,30,32,34,36,38,40,-1,-1,-1,-1,-1,-1,-1,-1,-1,-1,-1,-1,-1,-1,-1,-1,-1,-1],"split_conditions":[1E0,2E0,1E0,1E0,1E0,-1.56060895E-2,3E0,2E0,2E0,2.9450014E1,-5.4770272E-2,2E0,2E0,1E0,-6.0040295E-2,2.515064E1,2.9013855E1,2.48577E1,1E0,2.331099E1,2.6172308E1,3.8334873E1,1E0,-2.84787E-2,9.762232E-3,-3.477265E-2,-6.1602136E-3,6.766599E-2,-8.674826E-3,1.3803783E-2,-4.031643E-2,3.0761207E-2,-2.4508288E-2,-7.3555135E-3,1.5739258E-2,1.488588E-2,5.5148453E-2,3.539658E-2,1.595972E-2,5.9637006E-2,3.2492828E-2],"split_indices":[1,3,6,7,2,0,7,11,11,13,0,3,11,11,0,13,13,13,11,13,13,13,14,0,0,0,0,0,0,0,0,0,0,0,0,0,0,0,0,0,0],"split_type":[0,0,0,0,0,0,0,0,0,0,0,0,0,0,0,0,0,0,0,0,0,0,0,0,0,0,0,0,0,0,0,0,0,0,0,0,0,0,0,0,0],"sum_hessian":[3.8819467E2,2.605714E2,1.27623245E2,2.0601279E2,5.4558624E1,5.6602945E0,1.2196295E2,8.9443146E1,1.1656965E2,5.154508E1,3.0135477E0,6.765705E1,5.4305897E1,7.897782E1,1.0465322E1,1.0357752E2,1.2992127E1,1.6515795E1,3.502928E1,5.041324E1,1.7243814E1,3.64675E1,1.78384E1,7.325155E1,5.726273E0,2.0514847E1,8.3062675E1,5.635168E0,7.35696E0,8.1349745E0,8.38082E0,3.12019E1,3.827382E0,7.0581274E0,4.335511E1,5.7142115E0,1.1529603E1,2.8348291E1,8.119206E0,9.526135E0,8.312265E0],"tree_param":{"num_deleted":"0","num_feature":"16","num_nodes":"41","size_leaf_vector":"1"}},{"base_weights":[2.6281372E-2,-2.4052903E-1,5.7635343E-1,-3.7646183E-1,8.680512E-2,3.410479E-1,8.1843895E-1,-4.4752103E-1,1.0108884E-1,-6.9687605E-1,3.415065E-1,1.5427972E-1,7.171742E-1,8.7462825E-1,3.4677428E-1,-3.968627E-1,-9.99541E-1,-1.6393515E-1,5.940552E-1,-9.130201E-1,1.21272344E-4,7.958091E-2,9.7747034E-1,4.6433683E-2,4.4822983E-2,1.4442864E-2,8.4084725E-1,6.51633E-1,9.920381E-1,-1.5066315E-2,5.048315E-2,-2.4382664E-2,-5.817491E-3,-6.5599255E-2,-1.5262171E-2,-6.767642E-2,9.919698E-3,6.1882067E-2,3.453977E-4,-5.99607E-2,-3.1620257E-2,1.6270444E-2,-7.7312575E-3,1.9349417E-2,5.5860873E-2,4.6992626E-2,-2.782799E-3,1.48202395E-2,4.676311E-2,4.707096E-2,7.265176E-3,2.5032884E-2,5.2114785E-2],"categories":[],"categories_nodes":[],"categories_segments":[],"categories_sizes":[],"default_left":[0,0,0,0,0,0,0,0,0,0,0,0,0,0,0,0,0,0,0,0,0,0,0,0,0,0,0,0,0,0,0,0,0,0,0,0,0,0,0,0,0,0,0,0,0,0,0,0,0,0,0,0,0],"id":23,"left_children":[1,3,5,7,9,11,13,15,17,19,21,23,25,27,29,31,33,35,37,39,-1,41,43,45,-1,-1,47,49,51,-1,-1,-1,-1,-1,-1,-1,-1,-1,-1,-1,-1,-1,-1,-1,-1,-1,-1,-1,-1,-1,-1,-1,-1],"loss_changes":[5.8485237E1,1.19923E1,7.021099E0,6.52264E0,1.6025644E1,4.5751386E0,1.2507629E0,4.0955467E0,3.4360144E0,3.0674658E0,9.910225E0,3.6141467E0,8.143816E-1,6.466789E-1,4.060744E0,3.79311E0,2.2791433E0,7.736125E0,3.3313756E0,2.7459335E-1,0E0,2.607524E0,8.593559E-1,3.9787672E0,0E0,0E0,4.445753E-1,3.042489E0,1.699295E-1,0E0,0E0,0E0,0E0,0E0,0E0,0E0,0E0,0E0,0E0,0E0,0E0,0E0,0E0,0E0,0E0,0E0,0E0,0E0,0E0,0E0,0E0,0E0,0E0],"parents":[2147483647,0,0,1,1,2,2,3,3,4,4,5,5,6,6,7,7,8,8,9,9,10,10,11,11,12,12,13,13,14,14,15,15,16,16,17,17,18,18,19,19,21,21,22,22,23,23,26,26,27,27,28,28],"right_children":[2,4,6,8,10,12,14,16,18,20,22,24,26,28,30,32,34,36,38,40,-1,42,44,46,-1,-1,48,50,52,-1,-1,-1,-1,-1,-1,-1,-1,-1,-1,-1,-1,-1,-1,-1,-1,-1,-1,-1,-1,-1,-1,-1,-1],"split_conditions":[3E0,1E0,3E0,5E0,2E0,1E0,2E0,1E0,2E0,1E0,3E0,4.2428062E1,1E0,1E0,2E0,3.762752E1,1E0,2.8557526E1,2.7671946E1,2.9949274E1,1.21272344E-4,3.0822357E1,1E0,2.084404E1,4.4822983E-2,1.4442864E-2,2.497221E1,3.370192E1,2.2261738E1,-1.5066315E-2,5.048315E-2,-2.4382664E-2,-5.817491E-3,-6.5599255E-2,-1.5262171E-2,-6.767642E-2,9.919698E-3,6.1882067E-2,3.453977E-4,-5.99607E-2,-3.1620257E-2,1.6270444E-2,-7.7312575E-3,1.9349417E-2,5.5860873E-2,4.6992626E-2,-2.782799E-3,1.48202395E-2,4.676311E-2,4.707096E-2,7.265176E-3,2.5032884E-2,5.2114785E-2],"split_indices":[0,4,7,7,0,15,12,12,6,15,7,13,4,4,11,13,9,13,13,13,0,13,6,13,0,0,13,13,13,0,0,0,0,0,0,0,0,0,0,0,0,0,0,0,0,0,0,0,0,0,0,0,0],"split_type":[0,0,0,0,0,0,0,0,0,0,0,0,0,0,0,0,0,0,0,0,0,0,0,0,0,0,0,0,0,0,0,0,0,0,0,0,0,0,0,0,0,0,0,0,0,0,0,0,0,0,0,0,0],"sum_hessian":[3.9632254E2,2.6713205E2,1.2919046E2,1.888594E2,7.827266E1,6.694359E1,6.224688E1,1.6463423E2,2.4225174E1,1.8677105E1,5.9595554E1,4.5851665E1,2.109192E1,5.466794E1,7.5789413E0,1.5253621E2,1.2098021E1,1.6057232E1,8.167942E0,1.4143068E1,4.5340366E0,4.3119076E1,1.6476479E1,4.1079685E1,4.7719803E0,5.654149E0,1.5437773E1,2.1408598E1,3.325934E1,4.0317316E0,3.5472097E0,1.1441108E2,3.812513E1,7.630497E0,4.467523E0,3.174646E0,1.2882586E1,3.286894E0,4.881048E0,5.204854E0,8.938214E0,2.1055895E1,2.206318E1,4.0114474E0,1.2465032E1,3.471641E0,3.7608044E1,3.0497825E0,1.238799E1,1.2943742E1,8.464857E0,4.2878304E0,2.8971508E1],"tree_param":{"num_deleted":"0","num_feature":"16","num_nodes":"53","size_leaf_vector":"1"}},{"base_weights":[1.6879946E-2,-2.7243748E-1,5.870795E-1,-3.9007503E-1,2.110074E-1,3.778776E-1,8.1537527E-1,-1.998257E-1,-5.939606E-1,9.455085E-2,4.2476427E-2,-2.9271444E-2,4.366684E-1,8.526981E-1,3.7309197E-3,-4.332655E-1,2.1637999E-1,-2.3742872E-1,-6.8558747E-1,-1.00255355E-1,5.5888873E-1,5.889505E-1,1.9239545E-2,9.5906854E-1,6.14719E-1,-7.4050627E-3,-4.8112035E-2,-6.446693E-3,2.2878224E-2,1.5335296E-2,-5.247298E-2,-5.1985916E-2,-2.1713873E-2,9.390028E-3,-2.7133072E-2,-4.1048382E-3,4.7563184E-2,3.8305733E-2,1.0063712E-3,-3.4745686E-2,1.2529859E-2,2.3740603E-2,5.0941527E-2,-2.7195146E-2,4.3044996E-2],"categories":[],"categories_nodes":[],"categories_segments":[],"categories_sizes":[],"default_left":[0,0,0,0,0,0,0,0,0,0,0,0,0,0,0,0,0,0,0,0,0,0,0,0,0,0,0,0,0,0,0,0,0,0,0,0,0,0,0,0,0,0,0,0,0],"id":24,"left_children":[1,3,5,7,9,11,13,15,17,19,-1,-1,21,23,-1,25,27,29,31,33,35,37,39,41,43,-1,-1,-1,-1,-1,-1,-1,-1,-1,-1,-1,-1,-1,-1,-1,-1,-1,-1,-1,-1],"loss_changes":[6.492807E1,1.4937639E1,5.901848E0,7.961323E0,3.6579442E0,4.2756586E0,1.5654335E0,1.0858885E1,3.0370903E0,4.158789E0,0E0,0E0,4.238847E0,7.4824524E-1,0E0,1.05061035E1,3.44378E0,1.0274648E1,6.4691734E0,4.2524405E0,3.5751395E0,4.892439E0,3.3246503E0,4.8815536E-1,6.5813694E0,0E0,0E0,0E0,0E0,0E0,0E0,0E0,0E0,0E0,0E0,0E0,0E0,0E0,0E0,0E0,0E0,0E0,0E0,0E0,0E0],"parents":[2147483647,0,0,1,1,2,2,3,3,4,4,5,5,6,6,7,7,8,8,9,9,12,12,13,13,15,15,16,16,17,17,18,18,19,19,20,20,21,21,22,22,23,23,24,24],"right_children":[2,4,6,8,10,12,14,16,18,20,-1,-1,22,24,-1,26,28,30,32,34,36,38,40,42,44,-1,-1,-1,-1,-1,-1,-1,-1,-1,-1,-1,-1,-1,-1,-1,-1,-1,-1,-1,-1],"split_conditions":[3E0,4E0,3E0,1E0,7.7E1,4.5E1,8E0,2E0,5.5E1,1E0,4.2476427E-2,-2.9271444E-2,2E0,3.4585484E1,3.7309197E-3,1E0,1E0,1E0,2E0,3.241329E1,6.3E1,6.9E1,1E0,1.975631E1,3.6215183E1,-7.4050627E-3,-4.8112035E-2,-6.446693E-3,2.2878224E-2,1.5335296E-2,-5.247298E-2,-5.1985916E-2,-2.1713873E-2,9.390028E-3,-2.7133072E-2,-4.1048382E-3,4.7563184E-2,3.8305733E-2,1.0063712E-3,-3.4745686E-2,1.2529859E-2,2.3740603E-2,5.0941527E-2,-2.7195146E-2,4.3044996E-2],"split_indices":[0,7,7,14,8,8,7,6,8,15,0,0,11,13,0,9,7,7,0,13,8,8,7,13,13,0,0,0,0,0,0,0,0,0,0,0,0,0,0,0,0,0,0,0,0],"split_type":[0,0,0,0,0,0,0,0,0,0,0,0,0,0,0,0,0,0,0,0,0,0,0,0,0,0,0,0,0,0,0,0,0,0,0,0,0,0,0,0,0,0,0,0,0],"sum_hessian":[3.914179E2,2.598949E2,1.3152301E2,2.0935272E2,5.0542194E1,7.024566E1,6.127735E1,1.0957596E2,9.977676E1,4.3849415E1,6.6927776E0,3.4274232E0,6.681823E1,5.8065617E1,3.2117357E0,7.032925E1,3.9246716E1,2.1356918E1,7.841984E1,3.129062E1,1.2558796E1,4.8481316E1,1.833692E1,3.7744537E1,2.032108E1,4.664987E1,2.3679373E1,1.6160233E1,2.3086483E1,1.3086752E1,8.270166E0,3.1083607E1,4.7336227E1,1.9162895E1,1.2127726E1,4.9721613E0,7.586634E0,3.6568993E1,1.1912323E1,3.8908389E0,1.444608E1,5.312804E0,3.2431732E1,3.2779973E0,1.7043081E1],"tree_param":{"num_deleted":"0","num_feature":"16","num_nodes":"45","size_leaf_vector":"1"}},{"base_weights":[6.220566E-3,-2.2891797E-1,4.9611387E-1,-3.0515575E-1,2.3166628E-1,3.5773388E-1,7.697877E-1,-4.387779E-1,-0E0,-3.3656612E-2,3.7606677E-1,2.3350424E-1,7.5171065E-1,3.6923894E-1,4.349799E-2,-5.141296E-1,-1.5934014E-1,-4.5832574E-1,1.3516237E-1,2.2947583E-1,4.6623666E-2,-1.7889702E-1,3.6666355E-1,5.789778E-3,9.7072667E-1,-1.8763179E-3,3.8458306E-2,-2.2596074E-2,-5.056053E-2,8.552937E-3,-2.6460627E-2,-6.514255E-3,-3.5186153E-2,8.905391E-5,3.634515E-2,-1.8135617E-3,4.8678003E-2,1.509733E-2,-1.5998488E-2,4.568893E-3,2.5881737E-2,5.5661764E-2,2.0797526E-2],"categories":[],"categories_nodes":[],"categories_segments":[],"categories_sizes":[],"default_left":[0,0,0,0,0,0,0,0,0,0,0,0,0,0,0,0,0,0,0,0,0,0,0,0,0,0,0,0,0,0,0,0,0,0,0,0,0,0,0,0,0,0,0],"id":25,"left_children":[1,3,5,7,9,11,13,15,17,-1,19,21,23,25,-1,27,29,31,33,35,-1,37,39,-1,41,-1,-1,-1,-1,-1,-1,-1,-1,-1,-1,-1,-1,-1,-1,-1,-1,-1,-1],"loss_changes":[4.5785988E1,9.498754E0,4.495899E0,9.426514E0,5.251481E0,4.021511E0,1.2480583E0,3.2322845E0,4.4619665E0,0E0,2.4368267E0,3.8388631E0,2.6196709E0,1.7905066E0,0E0,3.28545E0,4.5060997E0,1.1440201E0,4.3317313E0,5.7287755E0,0E0,1.2635431E0,2.060947E0,0E0,5.635214E-1,0E0,0E0,0E0,0E0,0E0,0E0,0E0,0E0,0E0,0E0,0E0,0E0,0E0,0E0,0E0,0E0,0E0,0E0],"parents":[2147483647,0,0,1,1,2,2,3,3,4,4,5,5,6,6,7,7,8,8,10,10,11,11,12,12,13,13,15,15,16,16,17,17,18,18,19,19,21,21,22,22,24,24],"right_children":[2,4,6,8,10,12,14,16,18,-1,20,22,24,26,-1,28,30,32,34,36,-1,38,40,-1,42,-1,-1,-1,-1,-1,-1,-1,-1,-1,-1,-1,-1,-1,-1,-1,-1,-1,-1],"split_conditions":[3E0,5E0,1E0,1E0,5.3E1,2E0,1E0,2E0,2E0,-3.3656612E-2,7.7E1,1E0,2E0,6.5E1,4.349799E-2,3E0,1E0,1E0,1E0,1E0,4.6623666E-2,5.5E1,1E0,5.789778E-3,6.7E1,-1.8763179E-3,3.8458306E-2,-2.2596074E-2,-5.056053E-2,8.552937E-3,-2.6460627E-2,-6.514255E-3,-3.5186153E-2,8.905391E-5,3.634515E-2,-1.8135617E-3,4.8678003E-2,1.509733E-2,-1.5998488E-2,4.568893E-3,2.5881737E-2,5.5661764E-2,2.0797526E-2],"split_indices":[0,7,15,4,8,3,11,3,0,0,8,7,6,8,0,7,7,7,11,15,0,8,4,0,8,0,0,0,0,0,0,0,0,0,0,0,0,0,0,0,0,0,0],"split_type":[0,0,0,0,0,0,0,0,0,0,0,0,0,0,0,0,0,0,0,0,0,0,0,0,0,0,0,0,0,0,0,0,0,0,0,0,0,0,0,0,0,0,0],"sum_hessian":[3.9525485E2,2.672899E2,1.2796496E2,2.2980603E2,3.7483856E1,8.676553E1,4.119943E1,1.5959737E2,7.020866E1,4.559627E0,3.2924232E1,6.736907E1,1.9396458E1,9.379365E0,3.1820065E1,1.2475806E2,3.4839317E1,1.5386345E1,5.482231E1,2.731893E1,5.605301E0,1.617617E1,5.11929E1,5.477572E0,1.3918885E1,4.9752083E0,4.404156E0,1.1275718E2,1.2000879E1,1.8542692E1,1.6296625E1,7.4139676E0,7.972378E0,4.569454E1,9.127774E0,2.073158E1,6.58735E0,3.2498624E0,1.2926308E1,1.89346E1,3.22583E1,1.0129875E1,3.7890108E0],"tree_param":{"num_deleted":"0","num_feature":"16","num_nodes":"43","size_leaf_vector":"1"}},{"base_weights":[6.1168935E-2,-1.5852506E-1,5.1740754E-1,-2.3681766E-1,1.7481527E-1,-1.9130746E-2,6.236016E-1,-3.902765E-1,8.944029E-2,-3.1843394E-2,2.7868834E-1,-3.0494181E-2,2.0580441E-1,5.1015085E-1,8.0264866E-1,-2.366531E-1,-8.1419516E-1,1.7218634E-1,-5.592689E-2,4.9573952E-1,-3.119195E-1,5.0017774E-1,-2.1000503E-2,3.704503E-1,7.753515E-1,1.560144E-2,8.530422E-1,-2.7645653E-2,-6.2636742E-3,-4.670973E-2,3.2317357E-3,2.3670806E-2,-4.0225564E-3,1.817406E-2,4.8228838E-2,-3.3610247E-2,9.482096E-3,5.9992564E-3,5.0672837E-2,1.2626836E-2,4.030029E-2,1.707205E-2,5.0695885E-2,4.552945E-2,2.3064999E-2],"categories":[],"categories_nodes":[],"categories_segments":[],"categories_sizes":[],"default_left":[0,0,0,0,0,0,0,0,0,0,0,0,0,0,0,0,0,0,0,0,0,0,0,0,0,0,0,0,0,0,0,0,0,0,0,0,0,0,0,0,0,0,0,0,0],"id":26,"left_children":[1,3,5,7,9,11,13,15,17,-1,19,-1,21,23,25,27,29,31,-1,33,35,37,-1,39,41,-1,43,-1,-1,-1,-1,-1,-1,-1,-1,-1,-1,-1,-1,-1,-1,-1,-1,-1,-1],"loss_changes":[3.8269592E1,6.768744E0,7.143032E0,1.0539981E1,4.299548E0,2.9987094E0,1.5672951E0,8.994469E0,6.848256E0,0E0,5.8807917E0,0E0,3.1775596E0,2.0660725E0,5.609436E-1,3.6078486E0,4.0884266E0,4.9591465E0,0E0,1.5671473E0,2.4265513E0,2.0073743E0,0E0,2.0423312E0,1.7770777E0,0E0,2.0584679E-1,0E0,0E0,0E0,0E0,0E0,0E0,0E0,0E0,0E0,0E0,0E0,0E0,0E0,0E0,0E0,0E0,0E0,0E0],"parents":[2147483647,0,0,1,1,2,2,3,3,4,4,5,5,6,6,7,7,8,8,10,10,12,12,13,13,14,14,15,15,16,16,17,17,19,19,20,20,21,21,23,23,24,24,26,26],"right_children":[2,4,6,8,10,12,14,16,18,-1,20,-1,22,24,26,28,30,32,-1,34,36,38,-1,40,42,-1,44,-1,-1,-1,-1,-1,-1,-1,-1,-1,-1,-1,-1,-1,-1,-1,-1,-1,-1],"split_conditions":[1E0,4E0,1E0,3.630748E1,5.2E1,2.6172308E1,1E0,3.2363934E1,1E0,-3.1843394E-2,3.5357643E1,-3.0494181E-2,6.9E1,5E0,2.4579573E1,2.2564323E1,7.7E1,3.954231E1,-5.592689E-2,7.7E1,1E0,6.4E1,-2.1000503E-2,3.842524E1,1E0,1.560144E-2,6E0,-2.7645653E-2,-6.2636742E-3,-4.670973E-2,3.2317357E-3,2.3670806E-2,-4.0225564E-3,1.817406E-2,4.8228838E-2,-3.3610247E-2,9.482096E-3,5.9992564E-3,5.0672837E-2,1.2626836E-2,4.030029E-2,1.707205E-2,5.0695885E-2,4.552945E-2,2.3064999E-2],"split_indices":[1,7,7,13,8,13,15,13,12,0,13,0,8,7,13,13,8,13,0,8,15,8,0,13,5,0,7,0,0,0,0,0,0,0,0,0,0,0,0,0,0,0,0,0,0],"split_type":[0,0,0,0,0,0,0,0,0,0,0,0,0,0,0,0,0,0,0,0,0,0,0,0,0,0,0,0,0,0,0,0,0,0,0,0,0,0,0,0,0,0,0,0,0],"sum_hessian":[3.7963037E2,2.565341E2,1.230963E2,2.0821872E2,4.831536E1,2.0318195E1,1.0277811E2,1.4168565E2,6.653305E1,4.790171E0,4.352519E1,5.253636E0,1.506456E1,6.561182E1,3.7166286E1,1.0531487E2,3.637079E1,6.31477E1,3.3853517E0,3.2069458E1,1.1455732E1,1.0490528E1,4.574032E0,4.4791042E1,2.0820772E1,4.316645E0,3.2849644E1,2.6163147E1,7.9151726E1,3.2045887E1,4.3249025E0,2.8585726E1,3.4561977E1,2.6564285E1,5.5051723E0,6.5848236E0,4.8709083E0,6.847259E0,3.6432693E0,3.667247E1,8.118575E0,8.397523E0,1.2423249E1,2.7264734E1,5.584909E0],"tree_param":{"num_deleted":"0","num_feature":"16","num_nodes":"45","size_leaf_vector":"1"}},{"base_weights":[5.1854305E-2,-1.7466952E-1,5.1925915E-1,-2.9007503E-1,2.473035E-1,3.376275E-1,7.116156E-1,-5.648068E-1,-1.92338E-1,-5.2791387E-2,3.4199858E-1,1.990583E-1,7.3168087E-1,5.462605E-1,4.705843E-2,-9.144649E-1,2.4886228E-2,1.0304883E-1,-3.4731185E-1,4.3636066E-1,-2.755116E-2,3.2704687E-1,-2.1294233E-1,8.0202526E-1,1.568482E-2,2.2793978E-1,7.577296E-1,-2.6321827E-4,-5.0477963E-2,3.2332975E-2,-4.072305E-2,-1.370953E-2,2.6823113E-2,-2.3507003E-2,-6.596339E-3,5.8546183E-3,3.1120656E-2,2.6064051E-2,7.499219E-3,-3.140398E-2,3.3266123E-2,1.2001004E-2,4.870249E-2,-1.37514165E-2,1.9185377E-2,2.8107299E-2,5.4287583E-2],"categories":[],"categories_nodes":[],"categories_segments":[],"categories_sizes":[],"default_left":[0,0,0,0,0,0,0,0,0,0,0,0,0,0,0,0,0,0,0,0,0,0,0,0,0,0,0,0,0,0,0,0,0,0,0,0,0,0,0,0,0,0,0,0,0,0,0],"id":27,"left_children":[1,3,5,7,9,11,13,15,17,-1,19,21,23,25,-1,27,29,31,33,35,-1,37,39,41,-1,43,45,-1,-1,-1,-1,-1,-1,-1,-1,-1,-1,-1,-1,-1,-1,-1,-1,-1,-1,-1,-1],"loss_changes":[4.1681652E1,1.2979673E1,4.14505E0,5.419945E0,7.355398E0,3.4892297E0,1.661932E0,1.1242422E1,7.189201E0,0E0,4.7968035E0,2.826894E0,1.425848E-1,2.3027248E0,0E0,2.8346863E0,1.1449186E1,9.024949E0,2.5919285E0,2.8045073E0,0E0,1.2409997E0,5.0674233E0,9.862881E-1,0E0,1.4390441E0,6.591406E-1,0E0,0E0,0E0,0E0,0E0,0E0,0E0,0E0,0E0,0E0,0E0,0E0,0E0,0E0,0E0,0E0,0E0,0E0,0E0,0E0],"parents":[2147483647,0,0,1,1,2,2,3,3,4,4,5,5,6,6,7,7,8,8,10,10,11,11,12,12,13,13,15,15,16,16,17,17,18,18,19,19,21,21,22,22,23,23,25,25,26,26],"right_children":[2,4,6,8,10,12,14,16,18,-1,20,22,24,26,-1,28,30,32,34,36,-1,38,40,42,-1,44,46,-1,-1,-1,-1,-1,-1,-1,-1,-1,-1,-1,-1,-1,-1,-1,-1,-1,-1,-1,-1],"split_conditions":[3E0,2E0,1E0,1E0,1E0,2E0,3.4911766E1,3.6448177E1,2.7764265E1,-5.2791387E-2,2E0,3.7272434E1,3.4585484E1,1E0,4.705843E-2,1.9342587E1,4.0047398E1,2.4416859E1,3.695109E1,2.9450014E1,-2.755116E-2,1E0,4.202274E1,2E0,1.568482E-2,2.3761505E1,1E0,-2.6321827E-4,-5.0477963E-2,3.2332975E-2,-4.072305E-2,-1.370953E-2,2.6823113E-2,-2.3507003E-2,-6.596339E-3,5.8546183E-3,3.1120656E-2,2.6064051E-2,7.499219E-3,-3.140398E-2,3.3266123E-2,1.2001004E-2,4.870249E-2,-1.37514165E-2,1.9185377E-2,2.8107299E-2,5.4287583E-2],"split_indices":[0,3,5,6,0,3,13,13,13,0,14,13,13,14,0,13,13,13,13,13,0,14,13,6,0,13,15,0,0,0,0,0,0,0,0,0,0,0,0,0,0,0,0,0,0,0,0],"split_type":[0,0,0,0,0,0,0,0,0,0,0,0,0,0,0,0,0,0,0,0,0,0,0,0,0,0,0,0,0,0,0,0,0,0,0,0,0,0,0,0,0,0,0,0,0,0,0],"sum_hessian":[3.9149295E2,2.6397302E2,1.2751995E2,2.0771463E2,5.6258377E1,6.727292E1,6.024703E1,5.298253E1,1.547321E2,3.0520666E0,5.320631E1,5.1072247E1,1.6200672E1,3.7238277E1,2.300875E1,3.3021366E1,1.9961163E1,5.3138195E1,1.0159391E2,4.8685276E1,4.521035E0,3.9309586E1,1.1762662E1,1.2875725E1,3.324947E0,1.5882063E1,2.1356215E1,3.3262184E0,2.9695148E1,1.1667097E1,8.294066E0,2.8483252E1,2.4654943E1,6.3649357E1,3.7944553E1,1.8723078E1,2.9962196E1,1.7549404E1,2.1760181E1,8.258002E0,3.5046597E0,3.7150884E0,9.160636E0,3.4226964E0,1.2459367E1,1.5270035E1,6.086179E0],"tree_param":{"num_deleted":"0","num_feature":"16","num_nodes":"47","size_leaf_vector":"1"}},{"base_weights":[1.7652614E-3,-2.1660863E-1,4.716032E-1,-3.2736823E-1,2.2363374E-1,2.9684216E-1,6.937334E-1,-5.613368E-1,-1.6109818E-1,3.2256636E-1,-3.4066387E-2,9.179014E-2,8.3436793E-1,5.6572584E-3,7.534603E-1,-2.719007E-2,-7.7431446E-1,-7.3369926E-1,-6.8132885E-2,1.6123083E-1,9.681974E-1,2.0702112E-1,-4.2411545E-1,5.604041E-1,4.9821947E-2,4.5765527E-2,5.1575446E-1,7.5609847E-3,-5.1326703E-2,-4.6379965E-2,-1.6969323E-2,-1.7182361E-2,-5.29938E-2,-6.890359E-4,-4.679297E-2,3.4408595E-3,3.6624577E-2,1.5293698E-2,6.502957E-2,2.1047564E-2,-2.3363074E-2,-4.1389E-2,9.776778E-3,9.6305244E-4,4.020083E-2,2.3772067E-3,3.2588966E-2],"categories":[],"categories_nodes":[],"categories_segments":[],"categories_sizes":[],"default_left":[0,0,0,0,0,0,0,0,0,0,0,0,0,0,0,0,0,0,0,0,0,0,0,0,0,0,0,0,0,0,0,0,0,0,0,0,0,0,0,0,0,0,0,0,0,0,0],"id":28,"left_children":[1,3,5,7,9,11,13,15,17,19,-1,21,23,-1,25,27,29,31,33,35,37,39,41,43,-1,-1,45,-1,-1,-1,-1,-1,-1,-1,-1,-1,-1,-1,-1,-1,-1,-1,-1,-1,-1,-1,-1],"loss_changes":[3.844361E1,1.2541599E1,4.312916E0,7.8013725E0,4.8188896E0,7.3894606E0,1.6097813E0,9.499599E0,6.3282895E0,4.6731405E0,0E0,3.0919569E0,1.1525631E-1,0E0,1.164362E0,4.740723E0,3.5696487E0,1.6193457E0,4.8740654E0,1.9433717E0,1.4586143E0,6.313506E0,2.5919676E0,1.1489203E0,0E0,0E0,1.2542186E0,0E0,0E0,0E0,0E0,0E0,0E0,0E0,0E0,0E0,0E0,0E0,0E0,0E0,0E0,0E0,0E0,0E0,0E0,0E0,0E0],"parents":[2147483647,0,0,1,1,2,2,3,3,4,4,5,5,6,6,7,7,8,8,9,9,11,11,12,12,14,14,15,15,16,16,17,17,18,18,19,19,20,20,21,21,22,22,23,23,26,26],"right_children":[2,4,6,8,10,12,14,16,18,20,-1,22,24,-1,26,28,30,32,34,36,38,40,42,44,-1,-1,46,-1,-1,-1,-1,-1,-1,-1,-1,-1,-1,-1,-1,-1,-1,-1,-1,-1,-1,-1,-1],"split_conditions":[3E0,4E0,3E0,2E0,4.0521378E1,2E0,1.975631E1,5.7E1,5.3E1,7.6E1,-3.4066387E-2,7.1E1,1E0,5.6572584E-3,6.4E1,2E0,3.695109E1,5E1,4.232607E1,3.842524E1,1E0,2E0,2E0,5.9E1,4.9821947E-2,4.5765527E-2,2.666521E1,7.5609847E-3,-5.1326703E-2,-4.6379965E-2,-1.6969323E-2,-1.7182361E-2,-5.29938E-2,-6.890359E-4,-4.679297E-2,3.4408595E-3,3.6624577E-2,1.5293698E-2,6.502957E-2,2.1047564E-2,-2.3363074E-2,-4.1389E-2,9.776778E-3,9.6305244E-4,4.020083E-2,2.3772067E-3,3.2588966E-2],"split_indices":[0,7,7,0,13,3,13,8,8,8,0,8,14,0,8,14,13,8,13,13,12,7,7,8,0,0,13,0,0,0,0,0,0,0,0,0,0,0,0,0,0,0,0,0,0,0,0],"split_type":[0,0,0,0,0,0,0,0,0,0,0,0,0,0,0,0,0,0,0,0,0,0,0,0,0,0,0,0,0,0,0,0,0,0,0,0,0,0,0,0,0,0,0,0,0,0,0],"sum_hessian":[3.7244867E2,2.5449104E2,1.1795762E2,2.0372089E2,5.077015E1,6.75775E1,5.038012E1,8.339429E1,1.2032661E2,4.6446556E1,4.3235927E0,4.98991E1,1.7678398E1,5.1254783E0,4.5254642E1,2.4227945E1,5.916634E1,1.5694099E1,1.0463251E2,3.828436E1,8.162194E0,4.143653E1,8.46257E0,8.457192E0,9.221206E0,2.497694E1,2.0277702E1,2.1193035E1,3.0349107E0,4.274036E1,1.6425978E1,8.222057E0,7.472042E0,9.9529366E1,5.1031404E0,3.4068558E1,4.2158017E0,3.469661E0,4.6925335E0,3.185415E1,9.582379E0,5.0186977E0,3.4438725E0,3.087778E0,5.3694143E0,5.034199E0,1.5243504E1],"tree_param":{"num_deleted":"0","num_feature":"16","num_nodes":"47","size_leaf_vector":"1"}},{"base_weights":[-9.885234E-3,-2.2491373E-1,4.383657E-1,-4.5851928E-1,-5.6019124E-2,4.235062E-2,5.3154874E-1,-5.301352E-1,-1.3966104E-2,-2.4837612E-1,2.3083504E-1,2.3686154E-1,-4.884373E-2,3.8450483E-2,5.8976847E-1,-4.1721016E-1,-1.0094603E0,2.8044385E-1,-2.986396E-2,-1.6411598E-1,-6.1788347E-2,4.3941987E-1,-1.855939E-1,5.1584816E-1,5.579308E-2,3.627061E-1,-2.9903634E-2,4.9250048E-2,4.916881E-1,-2.6576186E-2,-1.7425703E-3,-6.1592113E-2,-2.6795557E-2,2.2411998E-2,5.755819E-3,-1.7664937E-2,1.3297777E-2,1.0109649E-2,5.426391E-2,-1.9687794E-2,2.4787007E-2,4.3693274E-2,-0E0,-6.2552565E-3,2.5330415E-2,3.545346E-2,-6.136395E-3,1.5101166E-2,3.4473985E-2],"categories":[],"categories_nodes":[],"categories_segments":[],"categories_sizes":[],"default_left":[0,0,0,0,0,0,0,0,0,0,0,0,0,0,0,0,0,0,0,0,0,0,0,0,0,0,0,0,0,0,0,0,0,0,0,0,0,0,0,0,0,0,0,0,0,0,0,0,0],"id":29,"left_children":[1,3,5,7,9,11,13,15,17,19,21,23,-1,25,27,29,31,33,-1,35,-1,37,39,41,43,45,-1,-1,47,-1,-1,-1,-1,-1,-1,-1,-1,-1,-1,-1,-1,-1,-1,-1,-1,-1,-1,-1,-1],"loss_changes":[3.601016E1,9.895169E0,4.3869305E0,3.3024502E0,8.230024E0,4.9843836E0,2.7192268E0,4.350382E0,2.9266784E0,7.089404E0,5.296893E0,9.917196E-1,0E0,2.5810108E0,2.7455711E0,3.218358E0,8.94083E-1,2.0058787E-1,0E0,6.900863E0,0E0,5.821304E0,3.090123E0,1.5624409E0,1.2657257E0,1.5564152E0,0E0,0E0,2.3938599E0,0E0,0E0,0E0,0E0,0E0,0E0,0E0,0E0,0E0,0E0,0E0,0E0,0E0,0E0,0E0,0E0,0E0,0E0,0E0,0E0],"parents":[2147483647,0,0,1,1,2,2,3,3,4,4,5,5,6,6,7,7,8,8,9,9,10,10,11,11,13,13,14,14,15,15,16,16,17,17,19,19,21,21,22,22,23,23,24,24,25,25,28,28],"right_children":[2,4,6,8,10,12,14,16,18,20,22,24,-1,26,28,30,32,34,-1,36,-1,38,40,42,44,46,-1,-1,48,-1,-1,-1,-1,-1,-1,-1,-1,-1,-1,-1,-1,-1,-1,-1,-1,-1,-1,-1,-1],"split_conditions":[3E0,2E0,1E0,5E0,1E0,2E0,2.2261738E1,2E0,1E0,4.09484E1,3.431347E1,1E0,-4.884373E-2,1E0,2.6005138E1,3.762752E1,3.784767E1,2.9522802E1,-2.986396E-2,3.52844E1,-6.1788347E-2,3.1539858E1,1E0,3.0218235E1,3.9642155E1,1E0,-2.9903634E-2,4.9250048E-2,1E0,-2.6576186E-2,-1.7425703E-3,-6.1592113E-2,-2.6795557E-2,2.2411998E-2,5.755819E-3,-1.7664937E-2,1.3297777E-2,1.0109649E-2,5.426391E-2,-1.9687794E-2,2.4787007E-2,4.3693274E-2,-0E0,-6.2552565E-3,2.5330415E-2,3.545346E-2,-6.136395E-3,1.5101166E-2,3.4473985E-2],"split_indices":[0,0,7,7,4,11,13,7,4,13,13,4,0,5,13,13,13,13,0,13,0,13,11,13,13,14,0,0,5,0,0,0,0,0,0,0,0,0,0,0,0,0,0,0,0,0,0,0,0],"split_type":[0,0,0,0,0,0,0,0,0,0,0,0,0,0,0,0,0,0,0,0,0,0,0,0,0,0,0,0,0,0,0,0,0,0,0,0,0,0,0,0,0,0,0,0,0,0,0,0,0],"sum_hessian":[3.7179938E2,2.5175327E2,1.2004613E2,1.0467112E2,1.4708214E2,2.3347996E1,9.669813E1,8.978897E1,1.4882146E1,8.833184E1,5.8750305E1,2.0333273E1,3.0147214E0,1.0568152E1,8.6129974E1,7.4351425E1,1.5437549E1,1.0121439E1,4.7607074E0,8.255445E1,5.777391E0,3.9266872E1,1.948343E1,7.057709E0,1.3275564E1,7.390558E0,3.177595E0,1.5123754E1,7.1006226E1,5.6737114E1,1.7614313E1,9.271243E0,6.1663055E0,3.8737562E0,6.2476826E0,5.7619446E1,2.4935001E1,2.9792015E1,9.474858E0,1.53596E1,4.1238313E0,3.8538415E0,3.2038677E0,9.831256E0,3.444308E0,4.1644683E0,3.2260895E0,3.779587E1,3.3210354E1],"tree_param":{"num_deleted":"0","num_feature":"16","num_nodes":"49","size_leaf_vector":"1"}},{"base_weights":[4.5269646E-2,-1.3612677E-1,4.459611E-1,-2.2571336E-1,2.2769767E-1,-2.0930634E-1,5.8010894E-1,-3.1104386E-1,7.1004584E-2,-2.0809653E-1,3.9977205E-1,-8.123851E-1,2.3964222E-1,-8.8798955E-2,6.2919974E-1,-1.11149475E-1,-5.2328473E-1,-3.6918633E-2,1.7192036E-1,-4.5787236E-1,2.2365367E-2,7.4097955E-1,3.475874E-2,9.460012E-3,-7.454159E-2,1.6122144E-2,3.293924E-2,-3.3734318E-2,2.5821997E-2,8.622769E-1,5.308992E-1,-8.9806796E-4,-6.155408E-2,-1.6550174E-2,-5.026133E-2,5.926937E-2,-0E0,-5.162896E-2,3.0683705E-3,5.5181137E-3,4.802498E-2,-1.2875661E-2,2.3884384E-2,1.8158933E-2,-2.4373313E-2,2.9700568E-2,5.0063282E-2,-2.0344565E-2,2.9267697E-2],"categories":[],"categories_nodes":[],"categories_segments":[],"categories_sizes":[],"default_left":[0,0,0,0,0,0,0,0,0,0,0,0,0,0,0,0,0,0,0,0,0,0,0,0,0,0,0,0,0,0,0,0,0,0,0,0,0,0,0,0,0,0,0,0,0,0,0,0,0],"id":30,"left_children":[1,3,5,7,9,11,13,15,17,19,21,23,25,27,29,31,33,-1,35,37,-1,39,41,-1,-1,43,-1,-1,-1,45,47,-1,-1,-1,-1,-1,-1,-1,-1,-1,-1,-1,-1,-1,-1,-1,-1,-1,-1],"loss_changes":[2.7427998E1,8.508917E0,1.0496681E1,5.336279E0,3.967891E0,5.8277855E0,3.3284683E0,6.781974E0,3.9271183E0,2.6753855E0,4.562476E0,6.6035047E0,1.0913516E0,3.0019765E0,1.5010719E0,8.75635E0,6.7998695E0,0E0,7.46986E0,3.6003475E0,0E0,2.4409437E0,2.6423278E0,0E0,0E0,1.7938246E0,0E0,0E0,0E0,1.8761444E-1,3.693613E0,0E0,0E0,0E0,0E0,0E0,0E0,0E0,0E0,0E0,0E0,0E0,0E0,0E0,0E0,0E0,0E0,0E0,0E0],"parents":[2147483647,0,0,1,1,2,2,3,3,4,4,5,5,6,6,7,7,8,8,9,9,10,10,11,11,12,12,13,13,14,14,15,15,16,16,18,18,19,19,21,21,22,22,25,25,29,29,30,30],"right_children":[2,4,6,8,10,12,14,16,18,20,22,24,26,28,30,32,34,-1,36,38,-1,40,42,-1,-1,44,-1,-1,-1,46,48,-1,-1,-1,-1,-1,-1,-1,-1,-1,-1,-1,-1,-1,-1,-1,-1,-1,-1],"split_conditions":[1E0,4E0,1E0,2E0,1E0,3.0098534E1,1E0,1E0,2.084404E1,2E0,3.1196194E1,1E0,4.1841778E1,1E0,2.6005138E1,4.2428062E1,1E0,-3.6918633E-2,2.48577E1,3.2057426E1,2.2365367E-2,2.5229122E1,1E0,9.460012E-3,-7.454159E-2,3.615097E1,3.293924E-2,-3.3734318E-2,2.5821997E-2,2.160627E1,2.7108917E1,-8.9806796E-4,-6.155408E-2,-1.6550174E-2,-5.026133E-2,5.926937E-2,-0E0,-5.162896E-2,3.0683705E-3,5.5181137E-3,4.802498E-2,-1.2875661E-2,2.3884384E-2,1.8158933E-2,-2.4373313E-2,2.9700568E-2,5.0063282E-2,-2.0344565E-2,2.9267697E-2],"split_indices":[1,7,7,3,6,13,6,14,13,3,13,11,13,15,13,13,10,0,13,13,0,13,15,0,0,13,0,0,0,13,13,0,0,0,0,0,0,0,0,0,0,0,0,0,0,0,0,0,0],"split_type":[0,0,0,0,0,0,0,0,0,0,0,0,0,0,0,0,0,0,0,0,0,0,0,0,0,0,0,0,0,0,0,0,0,0,0,0,0,0,0,0,0,0,0,0,0,0,0,0,0],"sum_hessian":[3.7509808E2,2.5848874E2,1.16609344E2,2.0794075E2,5.0547985E1,1.9593912E1,9.701543E1,1.6172144E2,4.6219307E1,1.4085266E1,3.646272E1,8.1112175E0,1.1482694E1,6.438533E0,9.05769E1,8.43104E1,7.741104E1,4.313776E0,4.190553E1,1.0527267E1,3.5579982E0,1.8171953E1,1.8290766E1,3.50724E0,4.603977E0,8.321863E0,3.1608307E0,3.2972183E0,3.1413145E0,2.4261673E1,6.631522E1,7.885436E1,5.456041E0,5.6688305E1,2.072273E1,5.2185845E0,3.6686947E1,4.6189065E0,5.9083614E0,5.197973E0,1.297398E1,1.113563E1,7.155136E0,5.209228E0,3.1126354E0,1.0325488E1,1.3936184E1,3.1834245E0,6.31318E1],"tree_param":{"num_deleted":"0","num_feature":"16","num_nodes":"49","size_leaf_vector":"1"}},{"base_weights":[1.2513101E-2,-1.3851416E-1,3.5288453E-1,-2.6384616E-1,1.4196017E-1,2.2071724E-1,6.2136227E-1,-3.5593256E-1,3.5691354E-2,3.120669E-1,-4.0673247E-1,1.524305E-1,4.465984E-2,1.4310248E-1,7.2704285E-1,-5.007473E-1,-1.3680798E-1,-3.0961168E-1,2.1617109E-1,4.540366E-1,-6.2009696E-2,-7.052294E-1,1.563952E-1,2.2179145E-1,-4.186033E-2,-1.65801E-2,3.601269E-2,9.551447E-1,4.3398738E-1,-9.857926E-3,-3.616876E-2,-2.0043742E-2,1.3467672E-2,1.984459E-3,-3.4593232E-2,4.8711184E-2,4.1442774E-3,3.542952E-2,7.7975006E-3,-3.826056E-2,1.180604E-2,1.900929E-3,-4.804049E-2,-7.912043E-3,2.4204018E-2,6.467521E-3,3.630267E-2,1.5002993E-2,5.4460045E-2,8.402525E-3,3.5097256E-2],"categories":[],"categories_nodes":[],"categories_segments":[],"categories_sizes":[],"default_left":[0,0,0,0,0,0,0,0,0,0,0,0,0,0,0,0,0,0,0,0,0,0,0,0,0,0,0,0,0,0,0,0,0,0,0,0,0,0,0,0,0,0,0,0,0,0,0,0,0,0,0],"id":31,"left_children":[1,3,5,7,9,11,13,15,17,19,21,23,-1,25,27,29,31,33,35,37,39,41,43,45,-1,-1,-1,47,49,-1,-1,-1,-1,-1,-1,-1,-1,-1,-1,-1,-1,-1,-1,-1,-1,-1,-1,-1,-1,-1,-1],"loss_changes":[1.9316765E1,9.183985E0,3.8790245E0,5.01503E0,7.645735E0,3.397917E0,1.6951866E0,4.252163E0,2.7388425E0,3.3746057E0,3.4232943E0,5.1537247E0,0E0,2.5161936E0,1.4619455E0,5.3439293E0,6.1948133E0,2.0940666E0,2.7471218E0,3.2522078E0,3.9691498E0,2.5917444E0,8.7392664E-1,3.053649E0,0E0,0E0,0E0,9.330931E-1,8.796487E-1,0E0,0E0,0E0,0E0,0E0,0E0,0E0,0E0,0E0,0E0,0E0,0E0,0E0,0E0,0E0,0E0,0E0,0E0,0E0,0E0,0E0,0E0],"parents":[2147483647,0,0,1,1,2,2,3,3,4,4,5,5,6,6,7,7,8,8,9,9,10,10,11,11,13,13,14,14,15,15,16,16,17,17,18,18,19,19,20,20,21,21,22,22,23,23,27,27,28,28],"right_children":[2,4,6,8,10,12,14,16,18,20,22,24,-1,26,28,30,32,34,36,38,40,42,44,46,-1,-1,-1,48,50,-1,-1,-1,-1,-1,-1,-1,-1,-1,-1,-1,-1,-1,-1,-1,-1,-1,-1,-1,-1,-1,-1],"split_conditions":[1E0,1E0,1E0,2E0,1E0,4.1841778E1,5.3E1,6.7E1,2.9450014E1,3.5357643E1,1E0,3.954231E1,4.465984E-2,1E0,3.4096535E1,5.7E1,1E0,2.48577E1,3.0218235E1,1E0,3.762752E1,5.4E1,6.1E1,7.4E1,-4.186033E-2,-1.65801E-2,3.601269E-2,2.341049E1,6.7E1,-9.857926E-3,-3.616876E-2,-2.0043742E-2,1.3467672E-2,1.984459E-3,-3.4593232E-2,4.8711184E-2,4.1442774E-3,3.542952E-2,7.7975006E-3,-3.826056E-2,1.180604E-2,1.900929E-3,-4.804049E-2,-7.912043E-3,2.4204018E-2,6.467521E-3,3.630267E-2,1.5002993E-2,5.4460045E-2,8.402525E-3,3.5097256E-2],"split_indices":[1,4,15,3,9,13,8,8,13,13,10,13,0,14,13,8,10,13,13,14,13,8,8,8,0,0,0,13,8,0,0,0,0,0,0,0,0,0,0,0,0,0,0,0,0,0,0,0,0,0,0],"split_type":[0,0,0,0,0,0,0,0,0,0,0,0,0,0,0,0,0,0,0,0,0,0,0,0,0,0,0,0,0,0,0,0,0,0,0,0,0,0,0,0,0,0,0,0,0,0,0,0,0,0,0],"sum_hessian":[3.7340543E2,2.5884967E2,1.1455574E2,1.7919218E2,7.965749E1,7.823599E1,3.6319748E1,1.3716829E2,4.202389E1,6.1274548E1,1.8382948E1,7.227248E1,5.9635143E0,7.1703796E0,2.914937E1,8.153919E1,5.56291E1,1.3989291E1,2.80346E1,4.445612E1,1.6818428E1,1.1965588E1,6.41736E0,6.835836E1,3.9141161E0,4.072748E0,3.0976317E0,1.4928876E1,1.4220494E1,3.548478E1,4.6054417E1,3.3868584E1,2.1760517E1,7.6412854E0,6.3480062E0,3.1364849E0,2.4898115E1,2.3055265E1,2.1400854E1,4.6408243E0,1.2177605E1,3.1794565E0,8.786131E0,3.3819807E0,3.0353794E0,5.8997753E1,9.360611E0,3.2128894E0,1.1715986E1,8.141119E0,6.079375E0],"tree_param":{"num_deleted":"0","num_feature":"16","num_nodes":"51","size_leaf_vector":"1"}},{"base_weights":[-3.7988443E-3,-1.8764491E-1,4.050686E-1,-2.7798837E-1,1.3630114E-1,2.4225168E-1,6.15602E-1,-5.450703E-1,-7.859694E-2,-9.208851E-2,3.9478695E-1,9.9971116E-2,6.464166E-1,6.802549E-1,1.5331852E-1,-6.5963715E-1,3.0109963E-1,-5.8042425E-1,9.050081E-2,2.4943481E-1,-4.7786984E-1,7.40154E-1,8.278208E-2,5.4923326E-1,-5.590931E-2,8.2425356E-1,1.1847111E-2,8.092213E-3,7.212179E-1,2.1423329E-2,-5.6017633E-3,-1.1783924E-2,-4.1545596E-2,-1.7381812E-2,4.8175983E-2,-5.719256E-2,-6.0924883E-3,-6.237189E-2,8.408059E-3,-1.3075091E-2,2.149011E-2,8.527298E-3,-5.6502234E-2,4.3921135E-2,1.763442E-2,-3.7654325E-2,2.1594822E-2,2.3690006E-3,3.912401E-2,-7.027787E-2,5.054364E-3,2.15947E-2,5.345712E-2,5.0724328E-2,2.9884461E-2],"categories":[],"categories_nodes":[],"categories_segments":[],"categories_sizes":[],"default_left":[0,0,0,0,0,0,0,0,0,0,0,0,0,0,0,0,0,0,0,0,0,0,0,0,0,0,0,0,0,0,0,0,0,0,0,0,0,0,0,0,0,0,0,0,0,0,0,0,0,0,0,0,